svm_type c_svc
kernel_type rbf
gamma 0.86918
nr_class 5
total_sv 187
rho 0.00962453 -0.12462 -0.0241425 0.401495 -0.196507 -0.0372622 0.344753 0.0994859 0.434513 0.375363
label 1 2 3 4 -1
nr_sv 54 33 33 23 44
SV
0.5810504339818314 0.4002096166205353 0.07923344777258644 0.4416084466140701 1:-0.035069067 2:-0.1340125 3:-0.13982164 4:-0.084083585 5:0.42475551 6:0.034722029 7:0.17970937 8:0.013031185 9:0.086153991 10:0.14419743 11:-0.078017685 12:0.052450964 13:-0.060236097 14:0.0079432277 15:-0.11044431 16:-0.033615314 17:0.14294764 18:-0.058750541 19:0.0083670514 20:0.11706797 21:-0.0029990824 22:0.024169811 23:0.025044725 24:0.041631301 25:0.013293783 26:0.05017978 27:0.085947169 28:0.0564101 29:0.0624748 30:0.089183699 31:-0.092822422 32:-0.071318106 33:-0.12160011 34:0.050535693 35:0.0063200454 36:0.053303001 37:-0.076418283 38:-0.048665461 39:0.01352219 40:0.03613779 41:-0.0142355 42:0.072055574 43:0.0039878077 44:-0.12089425 45:0.082814549 46:-0.046799684 47:-0.039829759 48:-0.029281403 49:0.013066076 50:0.043013188 51:0.012539259 52:0.029396245 53:-0.0251152 54:0.030469766 55:0.032858831 56:0.020498772 57:0.01530775 58:0.044554836 59:0.016061666 60:-0.014164988 61:-0.018848951 62:-0.0018840874 63:0.0061621062 64:0.016125367 65:0.0070750783 66:0.014252772 67:-0.016304175 68:0.031597418 69:0.0088526017 70:0.080043326 71:0.018517719 72:-0.0086766751 73:0.061063386 74:-0.017186559 75:0.027380277 76:-0.013889155 77:0.0049126573 78:0.014668562 79:-0.032545958 80:0.010423691 81:0.010096243 82:0.0054109005 83:0.031665222 84:-0.0056660573 85:-0.018257084 86:-0.0040156916 87:-0.021656411 88:-0.031340718 89:-0.0061508251 90:0.0080170201 91:-0.0079106819 92:-0.018372567 93:0.044778467 94:0.02640772 95:-0.0094711278 96:0.0036270276 97:0.0068260627 98:-0.047861084 99:0.03829387 100:0.023886415 101:-0.0071344094 102:0.0093602726 103:-0.017550695 104:-0.01890595 105:-0.00074139116 106:-0.0072749244 107:-0.038978472 108:0.0031930551 109:-0.019165642 110:0.034079228 111:-0.0032403396 112:0.007090565 113:0.014584393 114:0.0010397072 115:-0.011519109 116:0.0086434709 117:-0.029128306 118:0.011910117 119:-0.017427875 120:0.044018534 121:-0.00053262116 122:-0.013875196 123:0.00045344516 124:0.013907907 125:0.0021663938 126:0.0093303999 127:0.00045544606 128:0.043681634 129:-0.015437751 130:0.0046741784 131:0.014900772 132:-0.0071294474 133:-0.0036892095 134:-0.0080292269 135:0.0094751944 136:-0.0061211016 137:-0.015507927 138:0.012007924 139:-0.026161975 140:-0.027456964 141:-0.019931011 142:-0.0047971394 143:-0.016633726 144:0.025600603 145:0.012360317 146:0.012129318 147:0.013083074 148:0.0019832981 149:-0.0086490454 150:0.013609685 151:-0.023001578 152:0.014985069 153:-0.0054536888 154:-0.017390003 155:-0.0020574753 156:0.010041629 157:0.023633539 158:-0.0022203217 159:-0.00048407235 160:-0.00529845 161:0.014698625 162:0.0061425025 163:0.003950615 164:-0.021915825 165:0.014926334 166:-0.012247209 167:0.013759351 168:0.0091072768 169:-0.015162965 170:-0.0017787126 171:0.0094023076 172:0.010957105 173:-0.0094801677 174:-0.012681223 175:-0.0030594707 176:0.01493474 177:0.016096463 178:0.0082457026 179:0.00637641 180:0.0031869604 181:-0.002024075 182:0.0011456886 183:-0.0028745927 184:0.00038197239 185:0.0096640074 186:0.014158676 187:-0.015721439 188:-0.0059837821 189:0.016307854 190:-0.0097562118 191:0.014911363 192:-0.012396606 193:0.013242407 194:0.0031792335 195:-0.0012917364 196:0.0029146529 197:0.0047116876 198:0.00039864544 199:-0.001030859 200:-0.016332922 
0 0 0.003020491183803535 0 1:0.0093992285 2:-0.11901343 3:-0.22334961 4:-0.10648976 5:0.57682523 6:0.11937035 7:0.30785676 8:0.027534769 9:-0.033231647 10:0.13855889 11:-0.10032615 12:-0.0017866521 13:-0.08443482 14:-0.096376401 15:-0.048037554 16:0.035325555 17:0.16973716 18:0.035585725 19:-0.013710589 20:0.038643634 21:-0.055440223 22:0.010226369 23:0.015164021 24:0.05417863 25:-0.097796929 26:0.13055995 27:-0.0035334766 28:-0.035854243 29:0.082525811 30:-0.00051062982 31:-0.027324024 32:-0.028504165 33:-0.022194929 34:-0.086409492 35:0.0006706586 36:0.014742205 37:-0.028072989 38:0.012106793 39:0.010378661 40:-0.069230012 41:-0.0036762491 42:-0.0075301647 43:0.062908331 44:-0.041709125 45:0.0542475 46:0.008007861 47:-0.078709782 48:0.0061676508 49:0.018768464 50:0.011679749 51:0.027061835 52:0.0005606642 53:-0.10031627 54:0.030978567 55:-0.019750719 56:-0.0075288805 57:0.049166876 58:-0.043047661 59:0.027867303 60:0.030391728 61:0.01652173 62:-0.033439873 63:-0.013533553 64:0.019947669 65:-0.027869657 66:-0.0001726869 67:-0.04808954 68:0.027290562 69:0.029972837 70:-0.027205655 71:-0.037956242 72:0.0015602791 73:0.014768024 74:-0.018576264 75:0.025240222 76:-0.021963605 77:-0.017179299 78:-0.0048878971 79:-0.011364826 80:0.03005326 81:-0.019150378 82:0.020440205 83:0.01102343 84:0.0048257426 85:-0.00731893 86:-0.024192395 87:-0.020671932 88:0.0013152522 89:0.023214761 90:-0.013240174 91:0.018833828 92:0.0026714159 93:-0.014163418 94:-0.041693808 95:-0.021248114 96:0.010000931 97:-0.0035149345 98:0.0026966133 99:0.0045224905 100:-0.011203179 101:0.027139364 102:0.021303584 103:-0.016422718 104:-0.033394141 105:0.021059153 106:0.014550173 107:0.033159329 108:0.0052824401 109:0.0061994264 110:-0.00661454 111:0.029145038 112:-0.020163529 113:-0.017550235 114:0.0023677687 115:-0.0051834854 116:0.039333881 117:0.0062814801 118:-0.032574324 119:-0.018261305 120:0.011959236 121:-0.031131129 122:-6.2360343e-005 123:-0.030064335 124:-0.0067800529 125:0.004258492 126:-0.0013552171 127:0.013064717 128:-0.0049940677 129:-0.015191886 130:0.0059699916 131:0.00024066228 132:-0.0010066695 133:-0.0066498002 134:0.00029114673 135:-0.032986783 136:-0.016084828 137:0.0038850748 138:-0.00035484965 139:0.0023707409 140:0.0092900276 141:-0.020995645 142:0.0094323453 143:0.015214869 144:0.0035772357 145:-0.012686252 146:-0.00081264176 147:0.0076629497 148:0.0085404903 149:-0.0036736499 150:-0.0035767666 151:0.0054473453 152:-0.00041517581 153:0.010512665 154:-0.0074813165 155:-0.0079163712 156:-0.011364054 157:0.010748283 158:-0.014727531 159:-0.0009729441 160:0.011790943 161:-0.004157868 162:0.015582136 163:0.0030269753 164:0.0015277834 165:0.012402121 166:-0.010234367 167:0.006277953 168:-0.02561232 169:0.0016493853 170:-0.0064719096 171:0.0150975 172:-0.0048574283 173:0.018666242 174:0.01810478 175:0.0164564 176:-0.0075481282 177:-0.0081982279 178:-0.0083794575 179:-0.017685341 180:-0.0089283294 181:-0.012627007 182:-0.010311599 183:-0.0096258984 184:0.014292194 185:0.0015101542 186:0.00029370349 187:-0.0023897302 188:-0.0078928859 189:-0.0013021931 190:0.022886579 191:-0.010099012 192:0.014647119 193:0.0036417164 194:-0.0036039665 195:0.014767312 196:-0.010856657 197:0.0029482328 198:-0.010089505 199:-0.022115221 200:-0.013718624 
0 0 0.2962610687148785 0 1:-0.0098992066 2:-0.19351452 3:-0.18648724 4:-0.11074493 5:0.39742134 6:0.15947876 7:0.16461225 8:-0.010338479 9:0.040887321 10:0.060233345 11:-0.08080386 12:0.034086092 13:-0.009965255 14:0.076444641 15:-0.10544414 16:-0.042466473 17:0.14345624 18:0.05562597 19:-0.018635 20:0.055070695 21:-0.062793736 22:-0.0073382622 23:-0.027208306 24:0.044511755 25:-0.074417431 26:-0.031242178 27:0.061033865 28:-0.058639064 29:0.021686099 30:-0.0081994583 31:-0.015254941 32:-0.058692279 33:-0.008815502 34:-0.086515592 35:0.020171749 36:0.049374363 37:-0.019646311 38:0.016429368 39:-0.01066905 40:-0.0042803628 41:-0.022328744 42:-0.01588319 43:-0.014452203 44:-0.064212628 45:0.027973854 46:-0.021834253 47:-0.023234114 48:-0.024610337 49:0.029118754 50:0.025556789 51:-0.0058187804 52:-0.037880814 53:-0.012908992 54:-0.0026360699 55:0.031906173 56:-0.042071938 57:-0.020115653 58:0.0079183889 59:0.0021389283 60:-0.021866333 61:0.014992571 62:-0.0082401329 63:-0.0072199338 64:0.014468833 65:0.011712478 66:0.011441783 67:0.0074119575 68:0.004187372 69:-0.0084268094 70:0.017394702 71:0.038362787 72:0.013796272 73:-0.0095509063 74:-0.016436815 75:-0.01413168 76:0.00028488269 77:-0.012152525 78:-0.0033436162 79:-0.01140745 80:0.0036830486 81:-0.01291834 82:-0.0035601352 83:0.00049759298 84:-0.0033649716 85:-0.013073663 86:-0.011320065 87:0.0084599322 88:-0.019311832 89:-0.0027864064 90:0.0012012516 91:-0.0063495825 92:-0.0028334254 93:-0.0041318833 94:-0.0021116744 95:-0.00879158 96:0.028197428 97:0.0037338125 98:0.0027729858 99:-0.031369025 100:0.0078904934 101:0.024733472 102:-0.033896958 103:0.0040387107 104:-0.022720918 105:0.0041679419 106:-0.0015141822 107:-0.0088313872 108:-0.0025130748 109:-0.0062610066 110:-0.015505981 111:0.024032829 112:0.014350639 113:-0.018469296 114:0.0013139877 115:-0.00037152215 116:0.011321232 117:-0.018078609 118:0.0021593998 119:0.0023732011 120:0.01439355 121:0.0054624832 122:0.0068871464 123:-0.010415636 124:-0.013022342 125:0.016618377 126:-0.0017691669 127:0.019371536 128:0.0023923386 129:-0.022688707 130:0.031199259 131:-0.00061588356 132:-0.005295423 133:0.014004063 134:-0.010698965 135:-0.0062104817 136:0.016453179 137:-0.013656132 138:0.025672103 139:-0.0073303738 140:-0.0096147581 141:0.0049358036 142:-0.012253409 143:0.0051124875 144:-0.00095218128 145:-0.003629663 146:-0.0039143267 147:-0.0020914104 148:-0.019713666 149:0.0014975899 150:-0.0016189644 151:-0.0085042124 152:-0.011941023 153:0.010992391 154:0.023742982 155:0.0041502671 156:-0.00024533018 157:0.016460328 158:-0.015070854 159:0.0060311229 160:-0.013593104 161:0.0081922128 162:-0.0041722118 163:0.0015520827 164:0.0026963843 165:-0.0037834066 166:0.021378788 167:-0.0090183568 168:0.0015172625 169:-0.0051450861 170:-0.0042493636 171:0.0064669246 172:0.015243897 173:0.0067642821 174:0.00093422923 175:0.01154825 176:-0.015985369 177:0.046191321 178:0.013158579 179:-0.00062848664 180:-0.0015823142 181:0.0031678154 182:-0.0079745266 183:0.0022627764 184:0.0032830409 185:-0.009324108 186:0.0055734212 187:0.015302926 188:0.0048733201 189:-0.012660146 190:-0.0030280718 191:0.0086128785 192:-0.0072316393 193:-0.0026734515 194:-0.0046441806 195:-0.0054850057 196:-0.016800979 197:0.012304192 198:-0.019990325 199:0.0043251299 200:0.0069217705 
0.467916467431765 0 0 0 1:0.03672109 2:-0.20056889 3:-0.12865651 4:-0.15213956 5:0.52255929 6:0.14196571 7:0.17098777 8:0.0022125214 9:0.074831867 10:0.074224765 11:-0.091235291 12:0.034532046 13:-0.0096548433 14:0.0089442077 15:-0.13904419 16:-0.022172796 17:0.18480297 18:0.042992857 19:-0.014031184 20:0.059045862 21:-0.071611315 22:0.060007835 23:0.083629017 24:0.077349625 25:-0.10286617 26:0.083343391 27:0.039680195 28:-0.030541967 29:0.0027992974 30:0.039397583 31:-0.052766893 32:-0.0043534291 33:-0.016967285 34:-0.02969846 35:-0.010114439 36:0.031074069 37:-0.014515101 38:0.046182585 39:0.016975787 40:-0.011904232 41:-0.043240126 42:-0.047770857 43:0.0043687501 44:-0.0056234311 45:0.03055186 46:-0.022806101 47:0.0058843664 48:-0.0069253779 49:0.023705388 50:-0.014860148 51:0.0035818078 52:-0.011178037 53:-0.010815066 54:-0.028253215 55:0.019089105 56:0.0055044819 57:0.0053383506 58:-0.033341055 59:-0.0036099057 60:0.014037491 61:-0.0031782176 62:-0.017026945 63:0.014659362 64:0.043162327 65:0.0088230949 66:0.019551836 67:0.0032465299 68:0.012870226 69:0.0054487405 70:0.010278121 71:0.0092056824 72:-0.0036462346 73:-0.012126065 74:-0.031087331 75:0.0011941903 76:0.023295479 77:0.0059125525 78:-0.017592931 79:-0.001425655 80:-0.00072925132 81:0.016071444 82:0.020560584 83:0.002258998 84:0.0026522869 85:0.0020683404 86:0.0057684469 87:0.0046262447 88:-0.0072956125 89:-0.0015088624 90:-0.0059687781 91:-0.015511071 92:0.022615237 93:-0.0059907556 94:0.010179137 95:0.012824282 96:0.0055751146 97:-0.027202843 98:0.022053667 99:-0.016734077 100:0.0057702786 101:0.014002153 102:-0.016918568 103:0.0045648715 104:0.009395302 105:0.038189655 106:0.0020166051 107:0.024696606 108:0.0069583298 109:0.018516765 110:0.0083987677 111:-0.0024457018 112:-0.0036770118 113:0.006456043 114:-0.018559945 115:-0.011507692 116:-0.01015541 117:-0.010771736 118:0.029556106 119:0.0049154742 120:-0.012419258 121:-0.015861165 122:-0.0020650043 123:0.0044645635 124:-0.00021413878 125:0.0078665449 126:-0.012328359 127:0.0039581335 128:0.0066193417 129:0.004420165 130:0.011881187 131:0.0019297552 132:1.3966488e-005 133:0.017205233 134:0.0011166824 135:0.0022446975 136:-0.0018145205 137:-0.005335006 138:-0.014881714 139:0.0082658771 140:-0.0070366115 141:-0.022352573 142:-0.0012163431 143:0.0020026656 144:-0.023895515 145:0.0090663034 146:0.013685971 147:0.003064853 148:0.0010009882 149:0.0074918768 150:-0.0052881258 151:-0.0031194917 152:-0.019496874 153:-0.020733065 154:0.011797205 155:-0.0027404681 156:0.013449925 157:0.004637045 158:0.0059232511 159:0.0081677025 160:-0.0030982688 161:0.010890353 162:0.0041482876 163:0.0015526063 164:0.0049781287 165:0.0049478375 166:-0.011005165 167:-0.0011738084 168:-0.013097765 169:-0.00550353 170:-0.015487205 171:-0.013817969 172:-0.0042259305 173:-0.017220576 174:-0.0014298934 175:0.0037890147 176:6.1359339e-005 177:0.0080276801 178:-0.0059554033 179:-0.0063455911 180:-0.018228712 181:0.01255727 182:-0.0057140266 183:0.016792444 184:0.0018553 185:0.0080210084 186:-0.0076205435 187:0.01444379 188:0.0097106972 189:-0.0065552897 190:0.0031284164 191:0.0087226439 192:0.0015264686 193:0.0041171652 194:-0.0056419782 195:0.0049816057 196:8.9284689e-005 197:0.0019418862 198:0.0055118093 199:0.0036155888 200:0.0049375533 
0 0 0.1017079626929091 0.03980315420769492 1:0.052547909 2:-0.21127915 3:-0.17983217 4:-0.052713347 5:0.51954745 6:0.027964096 7:0.32073499 8:0.0081728671 9:0.037693464 10:0.081767129 11:-0.11898882 12:0.029294538 13:-0.04500205 14:-0.13944985 15:-0.057504965 16:0.077232095 17:0.057681296 18:0.015815547 19:0.013385411 20:-0.036041231 21:-0.063169913 22:0.10768985 23:-0.055995217 24:-0.1049117 25:-0.077955647 26:0.019587659 27:-0.051766634 28:0.026406489 29:0.039813912 30:0.11067908 31:-0.057935888 32:-0.053685741 33:-0.075306817 34:0.062195774 35:0.0023985026 36:0.008707227 37:0.007004879 38:0.011769703 39:0.001725243 40:-0.12787161 41:0.0066271416 42:-0.10383276 43:0.035156861 44:0.019911707 45:-0.011449002 46:-0.022911211 47:-0.029451544 48:0.020423863 49:0.030143655 50:0.0020061282 51:0.0080238954 52:0.030593536 53:-0.042484283 54:-0.0063023261 55:-0.017720921 56:-0.030387543 57:0.025561919 58:-0.021892216 59:0.023093403 60:0.020733068 61:-0.018554003 62:-0.043168514 63:0.0091530091 64:0.05410367 65:-0.039923692 66:-0.0020469443 67:0.0088757926 68:-0.0094210349 69:0.043599137 70:-0.087431187 71:0.025106115 72:0.0036249301 73:0.017145733 74:-0.050439393 75:0.10657671 76:-0.029264349 77:0.063685284 78:-0.048145105 79:0.037391568 80:-0.037268529 81:-0.0032972196 82:0.0030068401 83:0.015969418 84:0.045594094 85:-0.042732256 86:-0.02374827 87:-0.016686895 88:0.025913688 89:-0.0086479649 90:0.0063631831 91:-0.018069897 92:0.039167699 93:0.039410148 94:-0.04873119 95:0.0084663543 96:0.013008481 97:0.01206882 98:0.020134186 99:0.001564137 100:-0.012541986 101:-0.0089517165 102:-0.067149736 103:0.0042107034 104:0.014088457 105:0.015677338 106:0.047655485 107:0.0023799378 108:0.00045824396 109:0.0055652058 110:-0.025141536 111:-0.017054443 112:0.036797706 113:0.010998116 114:-0.017510635 115:-0.010530249 116:0.04180248 117:-0.0065212401 118:-0.022949051 119:-0.0074304101 120:-0.03487219 121:-0.0047723852 122:0.013731785 123:0.0025092648 124:0.020746089 125:0.023980745 126:-0.0030137756 127:0.020628872 128:0.0016938511 129:-0.0010735035 130:-0.013075345 131:0.022916923 132:-0.0074704198 133:0.010748753 134:0.014280231 135:-0.018606984 136:-0.0031509931 137:-0.021971238 138:0.00036187657 139:0.027837813 140:-0.026935701 141:-0.015692717 142:-0.0026775871 143:-0.01495339 144:0.0019451996 145:-0.029602487 146:0.0068563207 147:-0.022365088 148:-0.0050293282 149:-0.049215181 150:0.031834557 151:-0.011558024 152:-0.0086696516 153:-0.023668862 154:0.0099727635 155:0.0087259181 156:0.0058428709 157:-0.012495329 158:0.010828873 159:0.011087121 160:0.0081045154 161:0.0015071491 162:0.0033636373 163:-0.0054980778 164:0.0098972373 165:0.0011304424 166:0.0029000471 167:0.0026192498 168:0.0077455433 169:-0.013127259 170:0.0012350476 171:0.0028510314 172:-0.015130842 173:0.010125976 174:0.0019044904 175:-0.0024633177 176:-0.0066056836 177:0.0058909995 178:-0.0043095538 179:0.014345336 180:-0.010001818 181:-1.2003344e-005 182:0.036438555 183:0.0014509554 184:0.0070512378 185:-0.011877048 186:0.0067195285 187:0.0039438894 188:-0.0045209109 189:0.0030908935 190:0.0040769162 191:0.025049411 192:0.00017315185 193:-0.013269173 194:0.0067729 195:0.00064747763 196:0.020528809 197:0.010901908 198:0.0060764716 199:-0.0079824199 200:0.0052211684 
0 0.07524753164502449 0.0399503320391647 0 1:0.030982861 2:-0.16806368 3:-0.14811687 4:-0.0029438702 5:0.53055167 6:0.12443383 7:0.13304232 8:0.056049119 9:-0.013655277 10:0.055743035 11:-0.15739461 12:0.091354993 13:-0.038921824 14:0.028816036 15:-0.035280177 16:0.018942303 17:0.17576967 18:0.12558393 19:-0.11610975 20:0.015752194 21:-0.099839056 22:0.050663176 23:0.046859535 24:-0.057022475 25:-0.038355051 26:0.0038195927 27:-0.020141809 28:-0.038754712 29:0.0028439596 30:0.011638866 31:0.040213361 32:-0.042305425 33:0.011395254 34:-0.053954175 35:-0.0073345872 36:0.014616157 37:0.014896622 38:0.01941488 39:0.038463024 40:-0.042257357 41:-0.0056581085 42:0.0044697998 43:-0.0005431595 44:-0.047078412 45:-0.0096327596 46:-0.0041232388 47:-0.016824247 48:-0.0064176077 49:0.0035106467 50:0.019384624 51:0.026987163 52:-0.016369008 53:0.0102264 54:-0.000626372 55:-0.0034189085 56:0.024473625 57:0.013787964 58:-0.012007631 59:-0.032499764 60:-0.0062680075 61:-0.036049736 62:0.01574695 63:-0.0004451745 64:0.025179455 65:0.010314666 66:0.023566779 67:-0.033582817 68:0.012954258 69:-0.011084684 70:0.00096508369 71:0.00205431 72:0.047779141 73:-0.018241522 74:-0.026290185 75:-0.0093305817 76:0.017387448 77:-0.011934512 78:-0.0066407328 79:-0.0012260604 80:-0.0065774136 81:-0.015364545 82:0.021574539 83:-0.011533519 84:-0.0039385299 85:0.011942094 86:0.0094360986 87:0.0023515618 88:-0.0030046131 89:0.017768579 90:0.016319141 91:0.016781661 92:0.038949991 93:0.0062558074 94:0.02620721 95:-0.012609505 96:-0.010764774 97:-0.0034382477 98:-0.0010246083 99:-0.006452667 100:-0.0027867913 101:0.0051696356 102:-0.0020966879 103:-0.017131083 104:-0.016199674 105:0.012874907 106:0.017515376 107:-0.0030932459 108:0.002966846 109:0.0062925679 110:-0.023635416 111:0.0038465096 112:-0.0030503853 113:-0.015848059 114:0.0060801337 115:0.00084700544 116:0.0045081015 117:-0.017201381 118:0.010486358 119:0.013619943 120:0.014499064 121:0.0084213055 122:0.024164345 123:0.012280264 124:-0.0091175633 125:-0.010243618 126:-0.0032152197 127:-0.012413901 128:-0.001411994 129:-0.015073991 130:0.024484482 131:0.0115284 132:0.0071623257 133:0.0073954401 134:-0.0052560523 135:-0.003885198 136:0.0018894603 137:0.0009781931 138:-0.013246117 139:-0.010847871 140:-0.0084797305 141:-0.0039698527 142:-0.0023589081 143:0.016811464 144:-0.0057230312 145:-0.019710296 146:-0.013121077 147:0.020203625 148:-0.01620554 149:0.0040118828 150:-0.0095035193 151:-0.0096357053 152:0.0095029207 153:0.019425969 154:-0.0092970116 155:-0.0055060898 156:0.007232148 157:-0.00066581468 158:-0.0088544028 159:0.028568351 160:-0.0016573523 161:0.00023592928 162:-0.017586176 163:0.0083962467 164:0.0016884774 165:-0.0061039595 166:-0.0066988549 167:0.020129082 168:-0.0031185361 169:-0.0084096042 170:-0.007336786 171:-0.0021639259 172:-0.00064623368 173:-0.0081837863 174:-0.0099754663 175:0.0079881877 176:-0.0085181631 177:-0.0069840657 178:-0.019362016 179:-0.014137566 180:0.013306626 181:0.0044072092 182:-0.00045000733 183:0.013284503 184:0.020297604 185:0.0081328811 186:-0.0039475953 187:0.011380652 188:-0.015976489 189:0.0098111292 190:-0.0076226034 191:0.0036057576 192:0.024411815 193:-0.01139518 194:-0.0017512189 195:0.0055083112 196:-0.0087922336 197:-0.0080500834 198:0.0017570937 199:-0.0028095711 200:0.0016719087 
0 0 0 0.08883311340533352 1:0.055246522 2:-0.21387163 3:-0.14415498 4:-0.061548627 5:0.46335134 6:0.18279393 7:0.17064162 8:0.0041232651 9:0.054373375 10:0.088638056 11:-0.063132956 12:0.039217079 13:-0.035630603 14:-0.0044999476 15:-0.13112274 16:0.013873104 17:0.204355 18:0.081974948 19:-0.074274328 20:0.0087418549 21:-0.10497511 22:0.043159415 23:0.034417212 24:0.028348961 25:-0.024005602 26:0.053770155 27:0.014238511 28:-0.074542561 29:-0.0051638126 30:-0.030110672 31:-0.0012626793 32:-0.02227461 33:0.017083083 34:-0.041592075 35:-0.0047901076 36:0.030301185 37:0.027741092 38:0.033451822 39:0.02584696 40:-0.034423472 41:-0.022753204 42:-0.032679387 43:0.00046302206 44:-0.015517013 45:0.0058394582 46:-0.029999705 47:-0.020796628 48:-0.01279319 49:0.015880912 50:-0.0010090746 51:0.016834833 52:-0.037572001 53:-0.016846359 54:0.012688395 55:-0.0017983347 56:0.00080794306 57:0.0060752237 58:0.0036746169 59:-0.019886524 60:-0.01734097 61:-0.020712582 62:-0.011594222 63:0.0040881875 64:0.024863334 65:0.0055690986 66:0.02931231 67:-0.019996962 68:-0.017443056 69:-0.0042868771 70:0.025910313 71:0.025029161 72:0.021338518 73:0.0065906964 74:-0.019958748 75:-0.0050785432 76:0.017087021 77:0.0014228399 78:-0.004584317 79:0.012963979 80:0.021217952 81:0.014804857 82:0.02387773 83:0.0049436089 84:-0.023650944 85:0.023679541 86:0.0040575639 87:0.0096757403 88:-0.02499631 89:-0.011039648 90:0.011651009 91:0.010594036 92:0.0067128623 93:0.01241424 94:-0.0023979029 95:-0.012093155 96:-0.0075502536 97:0.0028568951 98:0.014858737 99:-0.033121588 100:-0.010149953 101:0.0042135026 102:-0.0019321713 103:-0.011369628 104:-0.013000398 105:-0.0081675012 106:0.022637814 107:0.02694007 108:0.010884182 109:0.004275185 110:-0.0090066089 111:-0.013709507 112:-0.0012242431 113:-0.001983042 114:0.022700023 115:0.010661879 116:-0.015269112 117:-0.011391853 118:0.0093508303 119:0.012392709 120:-0.0075817775 121:0.010067773 122:0.00028732692 123:0.011136525 124:-0.017784009 125:-0.0041901099 126:0.020522753 127:-0.0084210718 128:0.015413637 129:-0.013095497 130:0.0066890495 131:-0.018978028 132:-0.019926149 133:0.008215293 134:0.0047794401 135:0.0045017283 136:-0.0016572181 137:0.0056966678 138:-0.0074683542 139:-0.0019873277 140:-0.0091444064 141:-0.0089115488 142:-0.0014097895 143:-0.0063406847 144:-0.026254375 145:0.0011757659 146:0.012368498 147:-0.020668489 148:-0.00039802403 149:-0.019748799 150:-0.011403797 151:-0.0050380813 152:0.011150215 153:-0.0024910301 154:-0.0068101129 155:-0.021177553 156:0.013227983 157:0.0069027208 158:0.00417143 159:0.010583695 160:-0.012927577 161:-0.0081247765 162:-0.004433171 163:0.0022429118 164:-0.0024119827 165:0.0047650084 166:-0.0052989374 167:0.01366402 168:-0.00031526537 169:-0.00076288174 170:0.0016014135 171:0.010519327 172:-0.0084044744 173:-0.0081119295 174:-0.00073872925 175:0.0061079002 176:0.01258976 177:-0.016869714 178:-0.0016140954 179:0.0061777193 180:0.00046012787 181:0.0069988544 182:-0.0041024662 183:0.0037828995 184:0.0091855789 185:0.033436536 186:-0.016365182 187:-0.0048318249 188:-0.034515145 189:0.0012898209 190:-0.014726934 191:0.0017004847 192:0.028187887 193:0.0040785557 194:-0.026676138 195:0.010040886 196:0.0065364141 197:-0.0040935796 198:0.0034461709 199:-0.0040186698 200:0.0088593083 
0.6153049609832758 0.3112135917731403 0.5749656253918801 1.233612957710995 1:0.048142997 2:-0.23825403 3:-0.152567 4:-0.047581936 5:0.22259906 6:0.039952831 7:0.16958572 8:-0.11593901 9:0.085086276 10:0.021734508 11:-0.17411396 12:0.13236363 13:-0.023134702 14:-0.16605905 15:-0.081453966 16:0.18433425 17:-0.055678229 18:0.071861817 19:0.10425083 20:0.031209202 21:0.010227016 22:0.062212142 23:0.02178222 24:-0.039213512 25:0.11208185 26:-0.011322996 27:0.024912601 28:-0.011144307 29:-0.080490022 30:0.021551824 31:0.038791158 32:0.052759202 33:0.0084084465 34:0.028131002 35:-0.0040349502 36:-0.049966488 37:0.04101537 38:-0.16299854 39:0.018220808 40:-0.0033596867 41:0.022526114 42:-0.0098116944 43:0.010513414 44:-0.10548584 45:-0.013713716 46:-0.063793064 47:-0.039841618 48:0.025560261 49:-0.011225576 50:0.030410929 51:-0.060446595 52:-0.0040655823 53:0.0069610207 54:-0.037252555 55:-0.018948591 56:-0.029317707 57:0.069984439 58:0.09301419 59:-0.0048167378 60:0.0062017038 61:0.032319582 62:-0.10289359 63:0.0023893942 64:0.019520288 65:0.0079173172 66:0.019190075 67:0.097401309 68:-0.014356735 69:0.080815453 70:-0.015012693 71:-0.02368974 72:-0.0467041 73:0.018236037 74:-0.033259686 75:0.022574192 76:-0.065213876 77:0.0029548104 78:-0.025696561 79:0.0014971104 80:-0.020312989 81:-0.044018629 82:0.028365338 83:-0.059153226 84:-0.033851227 85:-0.029444317 86:-0.0047557064 87:0.023059026 88:0.0025169895 89:-0.0060564643 90:0.02833852 91:0.0051744443 92:-0.0050100802 93:-0.0088615186 94:-0.015885198 95:-0.0067772487 96:0.015000246 97:-0.015026358 98:0.013567765 99:0.0063037122 100:-0.017119705 101:-0.023046594 102:-0.0087361021 103:0.0259083 104:0.021957326 105:0.016571569 106:-0.011508303 107:0.017624459 108:0.045842869 109:0.017234344 110:0.0038186561 111:-0.035857179 112:0.002780651 113:0.0083122336 114:-0.016356314 115:0.016995872 116:-0.070323462 117:0.027254631 118:0.015664423 119:-0.011587157 120:-0.00032562821 121:0.061371944 122:-0.027873169 123:-0.040562531 124:0.016826256 125:-0.01677505 126:0.018873549 127:0.024606929 128:0.036228207 129:0.0071798848 130:0.01534916 131:-0.03468099 132:-0.010166555 133:-0.023249688 134:-0.01471909 135:0.0081637212 136:-0.015241452 137:-0.014911734 138:0.017280678 139:0.0059918243 140:0.00737514 141:-0.0012856554 142:0.017565509 143:-0.0037137882 144:0.017273355 145:0.0040558437 146:-0.0082214379 147:-0.0101879 148:0.023758328 149:0.042261936 150:-0.0077653267 151:-0.038409303 152:0.010930045 153:-0.012168149 154:-0.0042042451 155:0.016958405 156:-0.0194638 157:-0.019737912 158:-0.028264482 159:-0.031274922 160:-0.0035811377 161:-0.030567435 162:-0.010094504 163:0.020343347 164:-0.0060993816 165:-0.00093652403 166:-0.0096511312 167:0.0087962787 168:-0.0018877071 169:-0.013658551 170:0.010884904 171:-0.006548928 172:-0.0088239814 173:-0.0044081738 174:0.0065555299 175:-0.010846972 176:-0.0072803157 177:0.0039382162 178:0.001504715 179:-0.022389813 180:-0.0087830914 181:0.016533602 182:-0.015340684 183:0.0082948958 184:0.0016996499 185:0.016474246 186:0.022788328 187:0.0050653226 188:0.040087204 189:0.01613871 190:-0.0065805039 191:0.0025855069 192:-0.02792171 193:-0.0018674331 194:-0.012607754 195:-0.016193117 196:-0.0097467925 197:-0.00078695387 198:-0.010400281 199:0.01794785 200:-0.0023786739 
0.2180639452895234 0 0 0 1:-0.0021965019 2:-0.16850299 3:-0.10223993 4:-0.10641578 5:0.52869445 6:0.20113782 7:0.16648721 8:-0.010355544 9:0.051971042 10:0.062433437 11:-0.1093114 12:0.017617757 13:-5.8034007e-005 14:0.054791591 15:-0.075531246 16:0.01574928 17:0.18912615 18:0.11005063 19:-0.070166549 20:0.033574832 21:-0.09738981 22:-0.035320409 23:0.056483475 24:-0.0065971845 25:-0.045721451 26:0.028127219 27:0.037481401 28:-0.091961517 29:0.010168321 30:0.03155161 31:-0.0063322219 32:0.0079586945 33:0.0046039907 34:-0.029972411 35:-0.013545074 36:0.069871668 37:0.01650986 38:0.024651432 39:-0.024865299 40:-0.02609133 41:-0.021107907 42:0.0035120637 43:-0.011687113 44:-0.056464533 45:0.0086675242 46:-0.038704341 47:-0.0078763683 48:-0.0053780439 49:0.015820366 50:0.028856838 51:0.011514878 52:-0.019774254 53:-0.013885713 54:0.016756735 55:0.0078701869 56:-0.018655514 57:-0.0029492783 58:0.035154529 59:-0.038182684 60:-0.021295929 61:-0.0099398192 62:-0.017137787 63:0.0060755231 64:-0.0043024442 65:0.032128012 66:0.043660966 67:0.0074922081 68:0.013803871 69:-0.023283513 70:0.019058629 71:0.014960741 72:0.0057370416 73:-0.031801216 74:-0.016167513 75:-0.035984984 76:0.016593154 77:-0.0053442556 78:0.0086713936 79:0.01019753 80:-0.018628427 81:-0.0011569333 82:-0.0045378212 83:-0.012725851 84:-0.007532092 85:-7.9266737e-005 86:0.0041982823 87:0.027160785 88:-0.027888586 89:-0.0037663965 90:-0.024324044 91:-0.0072517491 92:0.0095443882 93:-0.011977529 94:-0.0052147002 95:-0.047265746 96:-0.0060380252 97:0.0065539517 98:-0.034945394 99:-0.0070631346 100:-0.0031769672 101:-0.0018120946 102:0.012001361 103:-0.0068678456 104:-0.019916688 105:-0.0083258106 106:0.013944569 107:-0.015699992 108:-0.026774576 109:0.0071328276 110:-0.02387353 111:0.0023294041 112:-0.019282008 113:0.013804764 114:-0.025499378 115:-0.0046766955 116:0.0030859734 117:-0.024316086 118:-0.001150307 119:0.007988506 120:0.0029233354 121:0.012997697 122:0.0064851907 123:-0.030221249 124:-0.0074174959 125:-0.0095139094 126:-0.0022802462 127:0.022156775 128:0.017783624 129:0.012687217 130:0.0048999292 131:-0.004618689 132:0.017499004 133:0.00062185855 134:0.00070103873 135:0.011996816 136:-0.00080005358 137:0.018030255 138:0.0055763975 139:0.0083431201 140:0.002686788 141:0.01868058 142:-0.027666377 143:0.0039799905 144:0.006780229 145:0.0059161146 146:0.0033197947 147:-0.0033305173 148:0.01647401 149:-0.012802118 150:-0.00064831773 151:0.0086524973 152:0.0038328094 153:0.0020503766 154:-0.013133655 155:-0.0087755635 156:0.017557927 157:0.010150424 158:-0.00994419 159:0.012115828 160:-0.0054855811 161:-4.9547478e-006 162:0.0077540242 163:-0.004732844 164:0.012125468 165:0.024411966 166:-0.013523524 167:0.0058020833 168:0.0048445817 169:-0.0036217146 170:-0.0042280323 171:0.002080274 172:0.012978115 173:-0.01708552 174:0.0051554075 175:0.0044864713 176:-0.0099639175 177:-0.01717446 178:-0.0080120049 179:-0.0047274573 180:0.0053863888 181:0.0071550598 182:-0.00077316294 183:-0.0068923839 184:-0.0096345825 185:0.00060883484 186:0.0071803352 187:0.014140959 188:-0.0069879144 189:-0.0097195721 190:0.019725984 191:-0.015710864 192:0.019768135 193:-0.0026232781 194:0.0094836072 195:0.010548138 196:-0.007437716 197:0.019729848 198:0.012831654 199:0.00099134902 200:0.024569624 
0 0 0 0.2280624254637762 1:0.068834617 2:-0.16971972 3:-0.16600602 4:-0.044377103 5:0.47210397 6:0.14166059 7:0.17269654 8:-0.010932283 9:0.052517855 10:0.043045315 11:-0.075845726 12:0.053818751 13:-0.020862685 14:0.058752677 15:-0.080964855 16:0.0037802547 17:0.15815294 18:0.082351924 19:-0.085917057 20:0.0023538128 21:-0.069689551 22:0.026788988 23:0.1022999 24:-0.020692487 25:-0.075042869 26:0.037421794 27:0.039111565 28:-0.049543047 29:0.0033443896 30:-0.0099948603 31:0.024435078 32:-0.02229013 33:-0.006845988 34:-0.041915089 35:0.023746728 36:0.041679613 37:-0.02164942 38:0.05149077 39:0.034735909 40:-0.031766024 41:-0.016564065 42:-0.029579939 43:-0.0080836275 44:-0.030922366 45:0.010354901 46:-0.013010227 47:-0.036385247 48:-0.010420643 49:0.030792673 50:0.0050833672 51:0.02353706 52:-0.037115767 53:-0.020869731 54:0.017673798 55:0.012641142 56:0.0094231922 57:-0.013504346 58:0.01131904 59:-0.036373869 60:-0.024344107 61:-0.021801663 62:-0.011248606 63:0.011008 64:-0.0086830385 65:0.02635973 66:0.021572588 67:-0.015684477 68:0.0045742635 69:-0.001067877 70:0.039606836 71:0.026800525 72:-0.0010840196 73:-0.014061315 74:-0.016572155 75:0.015114424 76:-0.0066727745 77:-0.013770306 78:0.011119332 79:-0.0032217838 80:0.013477287 81:-0.0022884544 82:-0.0054713205 83:0.0019137282 84:0.001409088 85:0.019544734 86:0.012325894 87:-0.009047599 88:-0.018851069 89:-0.013702969 90:0.0078198426 91:0.02281653 92:0.009535027 93:-0.0079272794 94:0.016415818 95:-0.011420525 96:-0.026964687 97:-0.0015861543 98:-0.019275543 99:-0.0017192889 100:-0.0051052715 101:-0.0088153268 102:0.016706216 103:-0.0036565982 104:-0.021167342 105:-0.00038940682 106:0.0070253699 107:-0.028158445 108:-0.015293787 109:0.017784293 110:-0.0040958815 111:-0.012744409 112:-0.019246057 113:0.015893324 114:0.0086923835 115:-0.0065129939 116:0.0047008307 117:-0.028083483 118:0.0014245537 119:-0.0019138202 120:0.0033164581 121:-0.0062364388 122:0.023519164 123:0.0074678933 124:-0.021448025 125:-0.0059364666 126:-0.01373929 127:-0.0057004685 128:0.0061828766 129:-0.006610696 130:0.00033755336 131:-0.00099290346 132:-0.015996553 133:-0.01025984 134:-0.013933349 135:-0.00028280235 136:-0.013976236 137:0.0014320249 138:0.010104406 139:-0.003729493 140:-0.016681347 141:-0.013082568 142:0.0045439107 143:0.009067474 144:-0.0068414042 145:0.0029842089 146:0.0089860998 147:-0.0090352777 148:-0.016528199 149:0.0026777369 150:-0.011415792 151:-0.003734415 152:0.0080445544 153:-0.009928755 154:-0.0047910994 155:0.0092741239 156:-0.0085009933 157:0.0024801108 158:0.0027825635 159:-0.0022636314 160:0.0072948479 161:0.001190566 162:-0.0097480909 163:-0.0025046226 164:-0.0089793262 165:0.011653105 166:-0.011810239 167:0.020745557 168:-0.0070119541 169:0.014612505 170:0.012196268 171:-0.00070396035 172:-0.0023239432 173:0.0046230985 174:0.013913137 175:-0.0059756421 176:0.0012675205 177:-0.0016596073 178:-0.007402777 179:-0.004378745 180:-0.0080280606 181:0.0066213108 182:-0.00062490183 183:-0.0091604898 184:0.0030384785 185:0.008026617 186:0.0052506688 187:0.00546657 188:-0.0041928346 189:0.017339268 190:-0.0069501497 191:-0.00054877957 192:0.0034418653 193:-0.00017811012 194:0.0027131416 195:-0.00025934413 196:0.00041134385 197:0.0046822104 198:-0.0017321682 199:-0.0075201389 200:-0.0069345825 
0.09799970008921927 0.3050419501385714 0.5950273897879307 0.0414324702769812 1:-0.029545021 2:-0.072077738 3:-0.24638055 4:-0.054672149 5:0.42020533 6:0.029616034 7:0.18194596 8:0.075187517 9:0.017460105 10:0.044311716 11:-0.16152973 12:0.08210794 13:0.13266001 14:-0.006270151 15:-0.068778391 16:0.05974481 17:0.1543744 18:-0.03653607 19:0.050373609 20:0.052386014 21:0.09740629 22:-0.046299749 23:-0.0035265255 24:0.090784098 25:0.065365207 26:0.094800485 27:0.015170479 28:0.14954766 29:-0.039097118 30:0.031731243 31:0.025568859 32:0.040882407 33:-0.066552678 34:0.058355234 35:0.050396354 36:-0.085671585 37:-0.08574038 38:-0.090363538 39:0.027686118 40:0.0071258292 41:0.050574438 42:0.030257139 43:0.023667171 44:-0.11055471 45:-0.010139785 46:-0.060466055 47:-0.024644446 48:0.0086326285 49:-0.0017969245 50:0.016290554 51:-0.033843196 52:0.039337298 53:-0.016518515 54:0.02995794 55:-0.0022699112 56:-0.052107311 57:-0.040572126 58:0.064543195 59:0.013430091 60:-0.015830969 61:-0.036034126 62:-0.024191563 63:0.041073247 64:-0.0099456897 65:-0.014254088 66:0.038097115 67:0.0060715539 68:0.025026125 69:0.02487193 70:0.0098585334 71:-0.00066017324 72:-0.04128185 73:0.097525188 74:-0.017678561 75:-0.0068573001 76:-0.00083500294 77:-0.0079234656 78:0.0024985679 79:0.00371489 80:0.0091179123 81:-0.030943597 82:0.020197748 83:-0.01903614 84:-0.0066799818 85:-0.0083069833 86:-0.015485192 87:-0.033807393 88:0.014974721 89:-0.0095444608 90:0.022653869 91:-0.010420654 92:0.021480896 93:0.0017687896 94:0.021990366 95:-0.014307717 96:-0.0037421977 97:-0.0088475797 98:0.019241427 99:0.029893117 100:0.00095377888 101:-0.063757817 102:-0.00046026364 103:-0.038462875 104:0.015821721 105:0.033217472 106:-0.042957166 107:-0.020434415 108:0.0039066733 109:-0.013722663 110:-0.0075938726 111:-0.027510991 112:-0.0056262536 113:0.011384548 114:-0.010579229 115:0.019859613 116:-0.013413032 117:-0.011521163 118:0.028078771 119:-0.011188659 120:0.017540391 121:0.041600928 122:0.0075594147 123:0.019979639 124:-0.0010598931 125:-0.00069343437 126:-0.0063817266 127:0.013297139 128:0.01964446 129:-0.0044103247 130:0.0211266 131:-0.0044393136 132:0.025026632 133:-0.030984343 134:-0.029160052 135:0.01383634 136:-0.0036823416 137:-0.017108177 138:-0.0107337 139:-0.0014228035 140:-0.0083049732 141:-0.018600429 142:-0.014921892 143:-0.01525252 144:0.013942689 145:-0.0086117547 146:-0.0037046103 147:0.0064811341 148:-0.0099119877 149:0.029552967 150:0.0022340608 151:0.0038401145 152:-0.014013424 153:-0.021445689 154:0.0040258485 155:0.0069999137 156:-0.0068124671 157:-0.0056596001 158:-0.01213212 159:-0.004600927 160:-0.0018092507 161:-0.0060945663 162:0.0065418718 163:-0.01157883 164:-0.0068301732 165:-0.0016363472 166:0.02747903 167:0.010410264 168:0.017696299 169:-0.0061890103 170:0.0056389467 171:0.0091337584 172:0.012000254 173:-0.016279787 174:-0.0055577758 175:-0.0013559215 176:-0.00069178558 177:-0.015868214 178:-0.0039601325 179:0.005337681 180:0.010207171 181:-0.0058623185 182:-0.012006733 183:0.0013553952 184:-0.0061864527 185:0.0019286607 186:-0.0057875462 187:0.0012135197 188:-0.0077260191 189:0.013341163 190:-0.0068520413 191:-0.015649261 192:-0.013824298 193:0.017278599 194:-0.017664431 195:0.018074681 196:-0.010432816 197:-0.013053846 198:0.015090717 199:-0.0075368778 200:-0.0063724756 
0.06717415006231954 0.07470990614808318 0.8705052442287683 0.01522802796034913 1:-0.042285318 2:-0.15381109 3:-0.25425775 4:-0.10306416 5:0.37812232 6:0.058941205 7:0.16395595 8:0.076532959 9:-0.037706686 10:0.019173103 11:-0.23086403 12:0.094372175 13:0.14796233 14:-0.051340625 15:-0.11866319 16:-0.040498154 17:0.059715205 18:0.066477044 19:-0.022160384 20:0.11962055 21:0.10900119 22:0.067080374 23:0.029407048 24:0.070018104 25:-0.004896725 26:0.022956332 27:-0.059059077 28:0.037557169 29:0.076916584 30:0.075203095 31:-0.037442126 32:-0.052581161 33:-0.084847886 34:-0.073566759 35:-0.0090600762 36:-0.0067793648 37:0.048828162 38:0.043270662 39:0.056214995 40:-0.091266816 41:-0.018904401 42:-0.021678409 43:0.019870163 44:-0.035548282 45:0.00052198882 46:-0.037667359 47:-0.054275975 48:-0.058243472 49:0.077919638 50:0.049091178 51:0.013694051 52:-0.053005662 53:0.018856709 54:0.019098713 55:0.0075774581 56:-0.020750515 57:-0.059457781 58:-0.024812066 59:-0.014950566 60:-0.017616787 61:-0.013090806 62:0.015031994 63:0.012604781 64:-0.016435809 65:0.013639064 66:0.015635297 67:0.0099094376 68:-0.032520468 69:-0.0058188483 70:-0.010540553 71:0.027779569 72:-0.0044938505 73:-0.0035665566 74:-0.023774038 75:0.0073693989 76:-0.019197533 77:-0.015953897 78:0.016131269 79:0.0015225676 80:-0.0058288623 81:0.022931548 82:0.0061378308 83:0.02598587 84:0.0040042907 85:-0.012833303 86:-0.015986537 87:-0.029685932 88:0.011999804 89:0.019648513 90:-0.00026093762 91:-0.0012155059 92:0.0081104761 93:0.03185281 94:-0.015089924 95:0.017217583 96:0.011887721 97:0.004278815 98:-0.0040009869 99:0.0049382983 100:-0.032216416 101:-0.019762045 102:-0.03597104 103:-0.012582893 104:0.012953083 105:0.010862267 106:-0.012220722 107:-0.0086925214 108:0.011662344 109:0.0050404878 110:-0.03454216 111:0.022097863 112:0.029878916 113:0.030410386 114:0.0027934522 115:-0.0023518581 116:0.0071865201 117:0.0017465171 118:0.0095039997 119:0.013921549 120:0.0040549724 121:0.0089472319 122:-0.00083701479 123:0.017768873 124:-0.0038361338 125:-0.015848521 126:-0.033534068 127:0.0011639897 128:0.0055610215 129:-0.001435877 130:-0.029666312 131:0.0081312662 132:0.021302429 133:-0.021155045 134:-0.014391242 135:0.0089642725 136:-0.011144461 137:-0.024232501 138:0.0028769694 139:-0.021926661 140:0.0077330392 141:0.0089807489 142:0.026306726 143:-0.0044940173 144:-0.0023390717 145:-0.020705719 146:0.037927934 147:-0.0082822894 148:-0.014987815 149:-0.014416886 150:0.014491723 151:0.024347654 152:-0.0041247451 153:-0.012003496 154:0.03155003 155:0.021188477 156:-0.010626195 157:-0.013160176 158:-0.0023750319 159:-0.0058012069 160:-0.021257388 161:-0.021658498 162:0.014518084 163:-0.0029700602 164:-0.0010365371 165:-0.0058876118 166:0.0043814809 167:0.0020222315 168:-0.00026086347 169:-0.0118911 170:0.020638732 171:-0.022274668 172:-0.02101962 173:0.0017457525 174:0.002979228 175:0.0030940981 176:0.0064821657 177:0.0036023911 178:0.026208299 179:0.012170442 180:-0.015090869 181:0.0014524536 182:0.0082159449 183:-0.0039300215 184:0.0073916023 185:0.00044385989 186:0.00056006559 187:-0.0076143733 188:0.0096548234 189:0.014015079 190:-0.0013070509 191:-0.0039191328 192:0.0095268705 193:-0.016730114 194:-0.0060563817 195:0.0062706297 196:0.0062596616 197:-0.0052913054 198:-0.0048738922 199:-0.0082215422 200:-0.0072308108 
0 0 0 0.3456948163918344 1:0.086661831 2:-0.28365613 3:-0.19976756 4:-0.0066958814 5:0.39704594 6:0.12127961 7:0.1754331 8:-0.052711909 9:0.01492794 10:0.13375422 11:-0.092552021 12:0.090012054 13:0.014461488 14:0.010588702 15:-0.079373691 16:-0.063128037 17:0.079201894 18:0.11224527 19:-0.079139913 20:0.011158609 21:-0.017845645 22:0.022869832 23:0.067164292 24:0.048245369 25:-0.066539839 26:0.049561416 27:0.053141256 28:-0.090611042 29:-0.047850573 30:0.001832418 31:-0.013069395 32:-0.031163769 33:-0.004840573 34:-0.06901267 35:-0.006985543 36:-0.013718405 37:-0.022419654 38:0.038334322 39:0.050568856 40:-0.039471871 41:0.0073210143 42:-0.032813101 43:-0.012930567 44:-0.051722498 45:-0.027291651 46:-0.0092433128 47:-0.040350495 48:-0.038146228 49:-0.010171194 50:0.011037586 51:0.049771717 52:-0.04875226 53:-0.014512629 54:0.036415019 55:-0.022558338 56:-0.02001193 57:-0.051655914 58:-0.027877231 59:-0.033485523 60:-0.022781653 61:-0.021903669 62:-0.0075074446 63:0.024935239 64:-0.013224561 65:-0.028918098 66:0.0021512527 67:0.0053528812 68:0.024449698 69:-0.036816184 70:-0.017719386 71:0.03140246 72:0.001721006 73:0.011119558 74:-0.013108744 75:0.0025527206 76:0.010401238 77:-0.0090705355 78:0.028365913 79:0.0070943295 80:-0.010570115 81:-0.017783723 82:0.045750421 83:0.0059946652 84:0.006178156 85:0.0053424881 86:-0.0033042237 87:0.0095508304 88:-0.0066441595 89:0.023801967 90:0.016018858 91:-0.0060004395 92:0.0086379378 93:0.011034906 94:0.0034879692 95:0.0079690999 96:-0.0048625393 97:0.0018236669 98:-0.017998148 99:0.012568904 100:0.0015701252 101:0.0032139122 102:0.024320369 103:0.0066198604 104:0.011740017 105:-0.023393421 106:-0.0057641891 107:-0.0049320112 108:0.00099354626 109:-0.017043154 110:-0.013154839 111:-0.02324771 112:-0.0087680876 113:-0.002216006 114:0.0045268316 115:-0.018877695 116:0.0075234962 117:0.0039791994 118:0.0019204745 119:0.011253674 120:0.01825982 121:0.013541471 122:0.014011801 123:0.019888109 124:0.0079582348 125:-0.024384515 126:-0.016592807 127:-0.0039777116 128:0.0024713863 129:0.021911957 130:-0.026535284 131:-0.0026306247 132:-0.013717357 133:0.013972141 134:0.016345221 135:0.013453945 136:-0.0031915865 137:0.0036813492 138:0.00030161473 139:0.0015211259 140:0.01632087 141:0.016420324 142:0.017057051 143:-0.0018641568 144:-0.010944503 145:-0.0046341252 146:-0.0027946188 147:-0.016708051 148:0.014718423 149:0.0020794833 150:0.01133262 151:0.0061884838 152:0.022779382 153:-0.010291118 154:-0.0029990104 155:0.00028222827 156:-0.004435844 157:-0.0065048308 158:0.012990131 159:-0.018171907 160:-0.019771025 161:0.0026601091 162:-0.010771793 163:0.011244712 164:-0.0077765891 165:0.015276681 166:-0.0082771267 167:0.0012699073 168:0.001555426 169:0.00048801888 170:-0.015561934 171:-0.0063696505 172:-0.0012559936 173:-0.0072489945 174:-0.00050343385 175:0.0089249519 176:0.0067666244 177:0.0062939078 178:-0.0017023136 179:0.0049596218 180:-0.024709249 181:0.0061927493 182:0.018325409 183:0.0018542163 184:0.011934551 185:4.2553629e-005 186:-0.0030300926 187:0.00071557448 188:-0.014965436 189:0.010507648 190:0.001622719 191:0.0045577745 192:0.0012022073 193:0.0018007575 194:2.592357e-005 195:0.014101944 196:0.011814955 197:0.001550702 198:-0.001632556 199:0.0053533475 200:0.0028713374 
0.02727131420250334 0.02188646999724348 0 0 1:-0.017385119 2:-0.14516764 3:-0.16780282 4:-0.055765506 5:0.41994828 6:-0.01020661 7:0.1482065 8:-0.013290538 9:0.057066834 10:0.037966115 11:-0.16351127 12:0.08002746 13:0.15985553 14:-0.017187629 15:-0.021182836 16:0.054803467 17:0.031000908 18:0.043328426 19:0.030986909 20:-0.05535569 21:0.06260514 22:-0.0022801295 23:0.0109013 24:0.054688418 25:-0.026254892 26:0.024519253 27:-0.01647287 28:0.026648329 29:0.025704714 30:0.012715275 31:0.0096389961 32:-0.0036914315 33:-0.058541743 34:0.10089293 35:0.057735042 36:-0.11621738 37:-0.054092836 38:-0.20583577 39:0.00091829739 40:0.045855726 41:0.027031319 42:0.0037118592 43:0.013550115 44:-0.1166639 45:-0.036059895 46:-0.057618589 47:-0.020172211 48:-0.0046921744 49:-0.025820068 50:0.013367404 51:-0.036468017 52:0.041759533 53:-0.0033812288 54:-0.01051463 55:-0.023528481 56:-0.02552607 57:0.020362849 58:0.093434191 59:0.027823446 60:0.036019406 61:-0.0023590758 62:-0.098917239 63:-0.0034706005 64:-0.0062312163 65:-0.0064061845 66:-0.0046959857 67:0.03200902 68:0.031671615 69:0.055055493 70:0.0062388881 71:-0.017932312 72:-0.00964006 73:0.081983654 74:-0.033463508 75:0.015711994 76:0.012146357 77:-0.011481888 78:0.036041701 79:-0.017628214 80:-0.061043452 81:0.0013244283 82:-0.026564394 83:-0.063833108 84:-0.0042426345 85:-0.0074825532 86:-0.0066733124 87:-0.043394921 88:-0.0028833929 89:0.035947303 90:0.0042375341 91:-0.011990476 92:0.034004701 93:-0.020321216 94:0.046186007 95:-0.0011295761 96:-0.0028210322 97:-0.015639823 98:0.023444209 99:0.01139231 100:0.032448396 101:-0.032318845 102:-0.014077361 103:-0.0091394968 104:0.038939448 105:0.031066854 106:-0.045112088 107:-0.048079214 108:-0.0091893721 109:3.6960326e-005 110:0.024880144 111:-0.015841608 112:0.0029266535 113:-0.014024215 114:-0.011619903 115:0.0076978085 116:-0.0063226172 117:0.0066263208 118:0.034355758 119:-0.026633181 120:0.00624197 121:0.032302593 122:0.011333807 123:0.0089922007 124:-0.017620651 125:0.0049661923 126:-0.022381477 127:0.024014368 128:-0.011647799 129:-0.011392421 130:0.015065834 131:-0.0060333335 132:0.0073305549 133:-0.011264872 134:-1.7629872e-006 135:0.035013602 136:0.00057672643 137:-0.006781702 138:0.0022448878 139:0.010848006 140:-0.0051367885 141:0.0039464064 142:-0.010240131 143:-0.0040991119 144:0.02657839 145:-0.024188624 146:-0.034644853 147:0.018865392 148:-0.0051512873 149:0.022809681 150:0.03732275 151:0.0222565 152:-0.010514073 153:0.017384662 154:0.0060767969 155:0.014655358 156:0.0084882881 157:0.031771073 158:-0.00016693246 159:-0.0070648323 160:0.0090265342 161:0.0034698619 162:-0.0065772671 163:0.0055937943 164:-0.023976707 165:-0.008283996 166:0.010319977 167:-0.006651457 168:0.0023098601 169:-0.0095737855 170:-0.0050247823 171:-0.005484264 172:-0.0045298699 173:0.00053451372 174:-0.0078217265 175:0.0041155821 176:-0.014858867 177:-0.025250233 178:0.016678005 179:-0.0064416043 180:0.0022258376 181:-0.0097756299 182:0.020069014 183:0.0110334 184:-0.0084505616 185:-0.0096112704 186:-0.0038560946 187:0.0094178624 188:-0.015629956 189:0.012487149 190:0.0002937101 191:-0.018966471 192:0.0041698209 193:0.011824411 194:-0.018466157 195:0.0050901744 196:-0.018240065 197:-0.0028732685 198:0.009162506 199:-9.8320534e-005 200:-0.018464812 
0 0 0 0.2408427652750136 1:0.063094631 2:-0.27939884 3:-0.16050046 4:-0.032357555 5:0.42831199 6:0.14380322 7:0.15453947 8:-0.022042714 9:-0.015051118 10:0.053574376 11:-0.13076985 12:0.033446364 13:0.09873528 14:0.075651651 15:-0.087080261 16:0.011997263 17:0.092907027 18:0.051492565 19:-0.03468444 20:0.031231842 21:-0.038805038 22:0.012288954 23:-0.028553988 24:0.032890897 25:-0.053737619 26:0.050480245 27:0.051642721 28:-0.07846045 29:-0.050880831 30:-0.00025241966 31:-0.0090175888 32:-0.07444549 33:0.029335437 34:-0.026330749 35:-0.014495278 36:0.047211764 37:0.015280564 38:0.071471412 39:0.011047947 40:-0.020128212 41:0.0053065184 42:0.0078254478 43:-0.036666089 44:-0.086228125 45:-0.011703689 46:-0.025147973 47:-0.019824206 48:-0.044943221 49:0.0042413852 50:0.023286246 51:0.040411274 52:-0.026478967 53:-0.0044374038 54:0.0072308142 55:0.023860406 56:0.028387819 57:-0.040492068 58:0.019235382 59:-0.045377182 60:-0.040751479 61:-0.023933861 62:0.014392374 63:0.0084806204 64:-0.0094617752 65:-0.023075861 66:0.013438641 67:0.029103071 68:0.0031678771 69:-0.039147429 70:0.0015306422 71:0.025508363 72:0.007361178 73:-0.012826999 74:0.0077226055 75:-0.04077611 76:0.022996 77:-0.0092007672 78:0.039982123 79:-0.03336416 80:-0.0031803172 81:0.020430427 82:-0.02241722 83:0.0075671527 84:0.0081060615 85:0.0061516942 86:0.0034038197 87:0.034074646 88:-0.029236316 89:-0.0018693145 90:0.00035673129 91:-0.0034441446 92:0.0087517609 93:-0.011211154 94:0.023970847 95:0.027779045 96:0.0001910382 97:-0.0080574177 98:-0.01869503 99:-0.011376763 100:-0.02377703 101:0.0038632282 102:0.00067303336 103:0.017029722 104:-0.025174355 105:0.019661476 106:0.011018674 107:0.011567449 108:0.00079334058 109:0.0072842179 110:-0.020046346 111:0.016100536 112:-0.0018479065 113:-0.0188279 114:0.0023522047 115:0.0085335316 116:-0.018875567 117:-0.015240546 118:-0.0050897498 119:0.020445749 120:0.0044749234 121:0.021579101 122:0.00049111291 123:-0.033929568 124:-0.0022755458 125:-0.0042252758 126:-0.018574952 127:-0.011906001 128:0.0054808828 129:-0.0035146029 130:0.0028383749 131:0.0014134621 132:-0.00025535249 133:0.0058997862 134:0.0033723117 135:0.003604545 136:0.0022720419 137:-0.018414737 138:-0.0019620707 139:0.0084787091 140:0.010014767 141:0.00044164278 142:0.014193034 143:-0.0054398864 144:-4.3357541e-005 145:0.0070365881 146:0.00063855233 147:0.01351033 148:-0.0017966249 149:-0.018077433 150:0.0040533349 151:0.017063609 152:0.014825814 153:0.02965666 154:0.007980255 155:0.0092780371 156:-0.0039586977 157:-0.0092786588 158:-0.0028622696 159:-0.014146223 160:-0.0099839187 161:-0.011417632 162:0.001236167 163:0.0038926761 164:0.0056963748 165:0.0091955271 166:-0.014137121 167:0.0067364951 168:-0.024343922 169:0.0036759004 170:-0.0010020648 171:0.0071152138 172:-0.0096996762 173:-0.0035504139 174:-0.0099730482 175:0.0065781694 176:-0.0053071087 177:-0.0017011718 178:0.0065070723 179:-0.0045917449 180:-0.004087776 181:-0.00027867014 182:0.0012997997 183:0.0033415024 184:0.0079338711 185:-0.0031740663 186:0.012482288 187:-0.015942876 188:0.015640795 189:-0.0025251884 190:0.0064267022 191:-0.00060937892 192:-0.01087117 193:-0.016444512 194:0.0071337538 195:-0.0087303467 196:0.0093425612 197:-0.0047359931 198:-0.0068827226 199:0.013015769 200:0.011128657 
0 0.02228099418563425 0 0.1105708560110314 1:-0.032711528 2:-0.30296679 3:-0.15646035 4:-0.00099656417 5:0.3123856 6:-0.02928888 7:0.17242297 8:-0.088056995 9:0.094537592 10:-0.064505842 11:-0.16942199 12:0.011926865 13:0.085852431 14:-0.11280263 15:-0.018129068 16:0.16774868 17:-0.059964259 18:0.10450853 19:0.094836445 20:-0.0018595036 21:-0.0075781215 22:0.090311346 23:0.050526347 24:-0.073091703 25:-0.040348955 26:0.055878255 27:-0.012146188 28:-0.11569917 29:0.0039623437 30:0.083520602 31:-0.016247838 32:-0.0071886393 33:0.030417668 34:0.033595117 35:0.046484207 36:-0.015083675 37:0.073882162 38:-0.14221925 39:-0.028856947 40:-0.084263175 41:0.037655771 42:-0.077625651 43:0.019022622 44:-0.032147268 45:-0.054845086 46:-0.030385273 47:-0.027285786 48:0.022470655 49:0.071018304 50:0.024748804 51:-0.041683431 52:0.00071308182 53:-0.021303294 54:-0.056044155 55:0.0097115083 56:-0.056985538 57:0.038105947 58:0.033042498 59:-0.038454034 60:0.027227828 61:0.0093245143 62:-0.039263291 63:-0.013704845 64:0.026037442 65:0.022578606 66:0.014161172 67:0.055752398 68:-0.06993061 69:0.039370362 70:-0.04230512 71:0.010380382 72:-0.020799795 73:0.0015222728 74:-0.039554136 75:-0.043941224 76:-0.047558337 77:-0.012523317 78:-0.018587025 79:0.049330523 80:-0.060962858 81:0.031035035 82:-0.0030822172 83:-0.032806887 84:0.023809771 85:-0.0347143 86:0.01720642 87:-0.023034037 88:-0.0075275172 89:0.0084583033 90:-0.034811005 91:-0.034311761 92:0.036836312 93:-0.042425186 94:-0.0069659031 95:0.042141901 96:0.026440579 97:0.023879751 98:-0.0033625289 99:0.00078860268 100:-0.022887333 101:0.0050791825 102:-0.032567633 103:-0.0069402102 104:0.027578596 105:-0.016075002 106:0.047261296 107:0.0035856635 108:-0.015745266 109:-0.0064484556 110:-0.028032387 111:-0.001307149 112:-0.0032226831 113:-0.00089295162 114:0.041210429 115:-0.019064982 116:-0.040581298 117:0.003127772 118:0.024164417 119:0.0096482258 120:-0.026908997 121:-0.022364682 122:-0.0070949894 123:-0.039670549 124:-0.0021135323 125:0.011624239 126:0.019919094 127:-0.0062167582 128:0.010103949 129:-0.0012661315 130:0.00025420455 131:0.0013553356 132:-0.014977484 133:0.016211344 134:0.036223737 135:0.0006995134 136:-0.00025038392 137:-0.019007069 138:0.036798259 139:-0.0023863483 140:-0.0029340765 141:0.03967767 142:0.0083018425 143:0.025063146 144:-0.014217618 145:-0.01985821 146:-0.044376953 147:-0.024493509 148:-0.011325679 149:0.0050612447 150:-0.017273405 151:0.0070511598 152:-0.034653348 153:0.00099154619 154:0.02397191 155:0.023199092 156:0.018625489 157:-0.0032873575 158:0.020625945 159:-0.013969863 160:0.01925361 161:0.0048888168 162:0.021609621 163:0.01026787 164:0.0063970474 165:-0.02795124 166:0.010872423 167:-0.0040597833 168:-0.029065294 169:-0.012088262 170:0.0095351477 171:-0.034207185 172:0.012279649 173:0.014906187 174:0.0044282228 175:0.020563843 176:0.0050345987 177:-0.023116993 178:-0.02728662 179:0.025944463 180:0.016836049 181:0.0079110779 182:0.0019797661 183:-0.0077207672 184:0.0060607504 185:-0.015174527 186:0.013215586 187:0.0052775106 188:0.0035653604 189:0.0020337077 190:0.0075050206 191:0.0029573157 192:0.006563023 193:-0.0025600695 194:-0.011712387 195:-0.0030299855 196:0.0072459769 197:-0.029470662 198:-0.035827176 199:-0.030066746 200:0.017740941 
0 0.2936599769526184 0 0.09675290482422151 1:-0.0042981572 2:-0.20688757 3:-0.14309848 4:-0.0086556926 5:0.38516271 6:0.16424205 7:0.17996915 8:-0.056260971 9:0.046721324 10:0.029799801 11:-0.10816092 12:0.021778682 13:0.094977281 14:0.09896846 15:-0.091272321 16:0.065583482 17:0.1281198 18:0.036653419 19:-0.038201778 20:-0.033915182 21:-0.10525231 22:-0.0068262599 23:-0.01039415 24:0.026980043 25:-0.057465325 26:0.1417034 27:0.048672666 28:-0.044439412 29:-0.016701826 30:-0.0023015417 31:0.0048763641 32:-0.003471822 33:0.055074136 34:-0.049765189 35:0.050532524 36:0.013980131 37:0.022987648 38:0.072626466 39:-0.011016815 40:-0.050114297 41:0.025547853 42:-0.012257888 43:-0.0089392773 44:-0.04268604 45:-0.010585854 46:-0.024863806 47:0.028574679 48:-0.009423805 49:-0.01707002 50:0.024410833 51:-0.016442374 52:-0.0049614275 53:-0.032533131 54:0.0062140218 55:0.018026241 56:0.0033164547 57:-0.0070202777 58:0.024753294 59:-0.0031223065 60:0.018909991 61:-0.014585137 62:-0.0035131691 63:-0.023554252 64:-0.025684151 65:0.001387803 66:0.0091305823 67:0.003939727 68:0.011213422 69:-0.018872039 70:0.0018148337 71:-0.0049839609 72:-0.013018068 73:0.010912333 74:-0.02449196 75:0.027366865 76:0.0054783724 77:0.0050541605 78:-0.0080759382 79:0.0035943529 80:0.029818932 81:-0.021751236 82:-0.018448509 83:-0.0097053893 84:0.0063571301 85:-0.0038890952 86:0.0035274648 87:0.0095500473 88:0.0033571726 89:-0.0041584567 90:0.0013226989 91:0.022061735 92:-9.4891992e-005 93:-0.017930563 94:-0.014951662 95:-0.0075142627 96:-0.0026851067 97:0.007094329 98:-0.0061839247 99:0.0010848527 100:0.012500666 101:0.0039898526 102:-0.0034747571 103:0.0022135158 104:0.016241049 105:0.0083664142 106:-0.025263609 107:-0.0077597952 108:-0.0077995975 109:0.017100614 110:0.027264722 111:0.011111244 112:0.0040329612 113:-0.022374768 114:0.0085428532 115:-0.0097360976 116:-0.0058479329 117:-0.0031359784 118:-0.014695081 119:0.00054150174 120:-0.0098705628 121:-0.011130058 122:0.015970082 123:0.0066281693 124:-0.011523388 125:-0.015273665 126:0.014781056 127:0.005983797 128:-0.033470626 129:-0.015738411 130:-0.010402124 131:0.0066228668 132:-0.00023908144 133:0.0036625923 134:-0.0078469488 135:-0.036810792 136:0.015235068 137:-0.0029767883 138:0.026626811 139:0.013213778 140:-0.006248293 141:0.0022602903 142:-0.014298185 143:0.01302517 144:0.0015248733 145:0.010857453 146:-0.010729243 147:-0.0051537819 148:0.011396419 149:0.018365722 150:0.0017170407 151:-0.015332754 152:-0.005085142 153:-0.0071876014 154:-0.0055462979 155:-0.00024614909 156:-0.018170455 157:0.0086504164 158:0.0012234263 159:-0.0089851198 160:0.012597221 161:0.016203295 162:-0.0053384512 163:-0.0061406566 164:0.015095869 165:-0.0052874568 166:0.026708747 167:-0.019083481 168:0.0047793854 169:0.0035830426 170:0.0094647397 171:0.0015033115 172:0.0033084596 173:-0.014587953 174:-0.0023200435 175:-0.00026270523 176:0.00030540279 177:0.017895158 178:-0.0091529969 179:0.0053492775 180:0.00034224262 181:-0.0026164337 182:-0.0043138031 183:0.0032446032 184:0.005134241 185:-0.0072891563 186:-0.0043234643 187:0.011812852 188:-0.0016140489 189:-0.024953834 190:-0.012443357 191:-0.0036015943 192:-0.004535485 193:-0.00037199082 194:-0.017572387 195:0.004287014 196:0.0072859256 197:0.0066342862 198:-0.0008607024 199:-0.0028099098 200:-0.018703885 
0 0.03810638610799749 0 0 1:-0.033373187 2:-0.20074997 3:-0.13608183 4:-0.039829601 5:0.44190964 6:0.13700575 7:0.16181195 8:0.053321915 9:0.024153179 10:0.054583151 11:-0.15020927 12:0.07254705 13:-0.039613068 14:-0.078321348 15:-0.068236809 16:0.10138928 17:0.11854885 18:0.050527924 19:-0.045660499 20:0.064682483 21:-0.055603352 22:0.0011981609 23:-0.032620114 24:-0.042206123 25:0.029902052 26:0.049641705 27:-0.071306696 28:-0.085645832 29:0.13403997 30:0.091821533 31:-0.024340679 32:-0.039901229 33:-0.11038253 34:0.012279119 35:-0.0093479235 36:0.016446645 37:0.0072921801 38:0.021507804 39:0.053142039 40:-0.088298382 41:-0.00073347958 42:-0.038293125 43:0.061429892 44:-0.035873307 45:0.012839051 46:-0.046629794 47:-0.014365533 48:0.00088958091 49:0.025355721 50:0.042116882 51:0.045428228 52:-0.037563796 53:0.024137144 54:0.0028841049 55:-0.016575798 56:-0.016133391 57:-0.010440745 58:-0.0027517339 59:0.0033167862 60:-0.018817693 61:-0.0096708924 62:-0.0039954984 63:-0.027545643 64:-0.0072984899 65:0.0042696741 66:0.0084725176 67:-0.0022860469 68:-0.07269189 69:0.02104472 70:-0.015223518 71:4.5665001e-005 72:0.068311171 73:-0.03167932 74:-0.01664964 75:-0.0040167647 76:-0.038030136 77:0.013588139 78:-0.019063526 79:0.013206722 80:0.005273278 81:0.028173636 82:-0.015150697 83:0.0046564776 84:0.044150506 85:0.00093643094 86:-0.0057957433 87:0.004202018 88:0.017727088 89:0.001037844 90:0.011627869 91:0.023291325 92:0.014159992 93:0.019079224 94:-0.032267736 95:-0.0060353337 96:0.02121176 97:0.0052928071 98:-0.015408183 99:0.001672138 100:0.011104465 101:-0.009974924 102:-0.02828094 103:0.012056801 104:-0.011365054 105:-0.0010478516 106:-0.0027697842 107:-0.018913924 108:-0.011199365 109:-0.026135966 110:-0.019256547 111:-0.012484892 112:0.014752329 113:0.046265079 114:0.018973788 115:-0.0088226805 116:0.018556504 117:0.0056601591 118:-0.011063246 119:-0.0049612378 120:0.021106926 121:-0.0039528619 122:0.025282048 123:-0.017138401 124:0.018911919 125:0.010475852 126:0.010050062 127:0.01276001 128:0.019027562 129:-0.016755435 130:-0.019403425 131:0.021392435 132:-0.0029890694 133:0.027120263 134:-0.014694697 135:-0.021208398 136:-0.0033659803 137:0.0040002382 138:0.0079842734 139:-0.007214319 140:0.010465915 141:-0.010844727 142:0.012976011 143:0.010099042 144:0.002359636 145:0.012114227 146:0.008145598 147:-0.013531967 148:0.010330874 149:-0.0338677 150:0.0074469025 151:0.011338926 152:0.0093616473 153:-0.033445299 154:0.0066024974 155:-0.0056211633 156:-0.010331719 157:-0.0024988694 158:-0.010229715 159:-0.0010355691 160:0.0015455246 161:0.0043507189 162:0.018346458 163:-0.008293164 164:-0.0042266699 165:-0.0073729582 166:0.012224377 167:0.0053743492 168:-0.0065033092 169:0.0019726257 170:0.011859714 171:-0.030317248 172:-0.002187946 173:0.00078003598 174:0.020353007 175:-0.0012600354 176:0.02252397 177:-0.011414262 178:0.012024766 179:0.0049511949 180:-0.012685139 181:-0.019479586 182:0.0012829414 183:0.008051212 184:-0.018565533 185:0.0022293036 186:0.0028616995 187:-0.0048606915 188:-0.0051190615 189:0.0072527646 190:-0.013756304 191:0.00024931895 192:-0.006660268 193:0.010335567 194:0.024529877 195:0.0092731489 196:-0.0018577043 197:-0.0099873101 198:0.024151673 199:-0.0020500151 200:-0.00035578049 
0 0 0 0.06482809553748056 1:0.027903558 2:-0.29941616 3:-0.14118351 4:-0.030068843 5:0.39599962 6:0.1622135 7:0.11903728 8:-0.054976352 9:0.040099609 10:0.02824483 11:-0.08481061 12:0.032766235 13:0.0051389991 14:0.03030137 15:-0.076498722 16:0.040490581 17:0.079336631 18:0.10536595 19:-0.09217404 20:-0.062807197 21:-0.054814771 22:-0.021240258 23:0.015785191 24:0.019524833 25:-0.020287498 26:0.056772663 27:-0.021078859 28:-0.10893484 29:-0.060013843 30:-0.01511994 31:0.015666759 32:0.0044461451 33:0.003927901 34:0.018187598 35:0.0046996955 36:0.010513652 37:0.028230302 38:0.049255407 39:0.02886114 40:-0.052924896 41:-0.015217001 42:-0.03955872 43:0.0025221464 44:-0.055283806 45:-0.040048795 46:-0.038916409 47:-0.0032760813 48:0.0094686799 49:0.01562403 50:0.016607181 51:-0.0015565437 52:-0.036817335 53:-0.012840094 54:0.0071470632 55:-0.021103852 56:0.013632512 57:-0.017026765 58:-0.0010977311 59:-0.015735377 60:-0.0030355856 61:-0.020521041 62:0.0026672142 63:-0.0025088741 64:-0.00063353996 65:-0.0061762995 66:0.0054315636 67:0.024346015 68:-0.0024537773 69:-0.030406072 70:-0.0071816261 71:-0.019167569 72:0.0056931542 73:-0.019361556 74:-0.00021088314 75:-0.023529059 76:-0.013425413 77:-0.027909513 78:0.021840973 79:0.0087396467 80:-0.0020368663 81:-0.033091017 82:-0.0012096787 83:-0.015775658 84:-0.0023377523 85:0.013622562 86:0.0037188466 87:-0.008152124 88:0.0026314051 89:-0.026064047 90:0.0091738299 91:-0.011740673 92:0.0066008919 93:-0.01005679 94:-0.025792211 95:-0.0073455865 96:0.014257948 97:0.014094993 98:0.014844221 99:0.0071014655 100:0.012841049 101:-0.010016504 102:0.010774386 103:0.018295206 104:0.030343442 105:-0.007212262 106:-0.021932931 107:-0.00070985316 108:-0.0028772816 109:0.003284459 110:0.0025031816 111:-0.0080063944 112:-0.012354588 113:-0.0070397305 114:0.017469684 115:0.0048841522 116:0.0021298162 117:0.012177967 118:-0.010386193 119:0.02298676 120:0.021844829 121:-0.0080518936 122:0.015034345 123:-0.00070561247 124:0.0079507227 125:0.012847091 126:-0.019691218 127:0.0026510965 128:0.002518148 129:0.0069480615 130:-0.018744219 131:-0.011135361 132:-0.0017659849 133:-0.01104309 134:0.0038389999 135:0.01203726 136:0.0029544792 137:0.010650544 138:-0.022685441 139:0.02191108 140:0.0079155009 141:-0.0018905329 142:-0.013869137 143:-0.015633699 144:0.00061025225 145:0.003676633 146:0.0011522032 147:0.010570366 148:-0.0065350865 149:0.0081785826 150:-0.002514371 151:0.011787495 152:0.003729833 153:-0.0045399031 154:-0.010296878 155:-0.0053643013 156:0.010749407 157:0.012165968 158:-0.00039519562 159:0.0098118635 160:0.013708727 161:-0.01135464 162:-0.01796106 163:-0.001375719 164:-0.0053408607 165:0.0037550856 166:0.01634383 167:-0.0070090698 168:0.010212528 169:-0.0016675047 170:0.00049951371 171:-0.0043905904 172:-0.00010052523 173:0.013867256 174:-0.01041939 175:-0.0049879096 176:-0.010169278 177:-0.013615583 178:0.0056429031 179:-0.011572677 180:-0.0035517919 181:-0.012002663 182:0.013093192 183:-0.0066051856 184:-0.0065061012 185:0.0018098745 186:-0.015284198 187:-0.0013173722 188:-0.0061716359 189:0.013872071 190:0.0065837852 191:0.014478732 192:0.0099402772 193:0.026685528 194:0.0083741511 195:0.0023374567 196:0.0004620314 197:-0.0038375697 198:0.014751734 199:-0.0039571167 200:-0.0049059416 
0.2953432164511947 0.03231559467576348 0 0.4196018437569198 1:-0.69731586 2:-0.97226183 3:-0.086865571 4:0.3278209 5:-0.13733265 6:-0.024227952 7:0.0011921855 8:0.25654112 9:-0.05079419 10:-0.055238283 11:-0.010861904 12:-0.11965059 13:-0.034610888 14:0.045398331 15:0.10628291 16:0.028513559 17:0.10126095 18:-0.014854152 19:-0.041204641 20:-0.089694564 21:0.050703063 22:0.10247835 23:0.053171763 24:0.010608852 25:0.078183662 26:-0.10045595 27:0.033399289 28:0.019984577 29:0.15444701 30:-0.022108099 31:-0.055675985 32:0.064029532 33:0.15858599 34:-0.10098789 35:0.0040551779 36:0.025938319 37:0.0057234474 38:0.059581111 39:0.063709204 40:0.030301525 41:-0.054733843 42:0.017084521 43:0.078410892 44:-0.02313121 45:-0.028260723 46:0.017960481 47:-0.014331555 48:0.089177217 49:0.026452293 50:-0.019266248 51:-0.0041538119 52:0.0059686859 53:0.019587179 54:-0.031631561 55:-0.006507836 56:-0.041209713 57:-0.02435484 58:0.0017868386 59:-0.024448138 60:0.01376082 61:-0.02168847 62:-0.0079864562 63:-0.051366821 64:0.021915643 65:-0.016401264 66:-0.008043536 67:0.049549643 68:0.022148374 69:-0.014233484 70:0.0035388389 71:-0.021246659 72:-0.0029469206 73:-0.02778656 74:-0.0071036371 75:-0.026340595 76:-0.016742568 77:0.013776661 78:-0.031443349 79:-0.004247932 80:-0.018779349 81:0.0083030496 82:0.015685421 83:-0.0036860247 84:0.02368322 85:0.0075353891 86:0.025208979 87:0.024777574 88:-0.03089218 89:0.0072343289 90:-0.032318201 91:-0.02106237 92:0.021215924 93:0.010639613 94:0.018845926 95:0.0030305358 96:-0.022071314 97:0.034620933 98:-0.022158755 99:-0.035618878 100:-0.015092537 101:0.0075942612 102:0.019012448 103:-0.0034616638 104:0.0033272924 105:0.014206162 106:0.015712015 107:0.0025668455 108:0.014879974 109:-0.0057053803 110:-0.010755641 111:-0.0017099571 112:0.0014336813 113:-0.021322406 114:-0.01531546 115:-0.013315523 116:-0.025959568 117:-0.022485428 118:-0.015816369 119:-0.023749664 120:0.0056543401 121:0.0053121058 122:-0.0013375466 123:-0.020637079 124:-0.00027733315 125:-0.017382033 126:-0.0063513865 127:-0.0058549653 128:-0.0041704544 129:0.0072117866 130:0.0264942 131:-0.010121731 132:0.0060430988 133:-0.0037598762 134:0.0038779674 135:0.0026150433 136:0.0041024204 137:-0.0098995726 138:-0.002268621 139:-0.0038976519 140:-0.001959812 141:-0.0086736238 142:-0.0081573487 143:-0.0086272811 144:0.02317855 145:-0.0084656018 146:0.00032944738 147:-0.01669488 148:0.010404579 149:-0.014910908 150:0.0056881155 151:-0.0094913041 152:-0.010249131 153:-0.0021196568 154:0.0021883282 155:-0.011459127 156:-0.014149981 157:-0.0016102124 158:-0.010448633 159:-0.027813812 160:0.017389285 161:0.014496002 162:0.003081337 163:-0.0035640524 164:-0.010611204 165:0.0084622308 166:-0.0012002563 167:0.0038794519 168:-0.00051479312 169:-0.0022447794 170:0.0061377894 171:-0.016506078 172:0.0028372577 173:0.0050842243 174:0.011790713 175:-0.0091028096 176:-0.0063394045 177:0.014763429 178:-0.0022191063 179:0.019971817 180:-0.0029298209 181:-0.0037057722 182:-0.026651221 183:-0.012837327 184:0.0058775139 185:-0.005014304 186:0.001756552 187:-0.0042729481 188:0.0064270967 189:-0.0067432552 190:-0.025138341 191:0.00057828011 192:-0.0020847167 193:0.011128184 194:0.017451971 195:-0.00072877196 196:0.015027462 197:0.0010009702 198:-0.0065028468 199:-0.0016916187 200:-0.0022983435 
0 0 0.1100460698765685 0.0701243564159163 1:-0.6900253 2:-0.95007151 3:-0.12813108 4:0.31571159 5:-0.1034659 6:-0.029026025 7:0.00018301135 8:0.26178088 9:-0.038720534 10:-0.047139382 11:0.0089707816 12:-0.13272194 13:-0.044893555 14:0.006180488 15:0.063239256 16:0.023385964 17:0.07936917 18:0.01689664 19:-0.10031375 20:-0.13426622 21:0.032006842 22:0.11764157 23:0.035535958 24:0.03750242 25:0.12516781 26:-0.10529987 27:0.062084551 28:0.0092319458 29:0.16172363 30:-0.057970121 31:-0.041810043 32:0.069840537 33:0.15907307 34:-0.036658763 35:0.015521604 36:-0.0078589793 37:0.011250375 38:0.027661246 39:0.072982161 40:0.048081043 41:-0.054397104 42:-7.6010233e-005 43:0.067322914 44:-0.039961369 45:-0.053641665 46:0.0086145468 47:-0.009213756 48:0.078271151 49:0.0042050178 50:-0.0086380282 51:0.00086096626 52:0.010353134 53:0.024941448 54:-0.0027375005 55:-0.020674169 56:-0.018559694 57:0.018313253 58:-0.0088482792 59:-0.018993421 60:-0.018700046 61:-0.0077709135 62:-0.015244901 63:-0.014143444 64:0.026964003 65:0.0031021571 66:-0.030801879 67:0.023907336 68:0.01573255 69:-0.016836554 70:0.0071678075 71:-0.017595665 72:-0.0036963884 73:0.0071890458 74:0.028243168 75:0.012864556 76:-0.027604793 77:-0.0023831534 78:-0.016929979 79:0.0025352535 80:0.0064833469 81:0.029010248 82:0.022914929 83:-0.0056388752 84:0.019814486 85:0.0072684958 86:0.01645981 87:0.06452872 88:0.0047839214 89:-0.001537962 90:-0.011264731 91:-0.012060565 92:0.0055793326 93:0.015090171 94:0.012467339 95:0.00045146746 96:-0.037542727 97:0.018816303 98:-0.0046529012 99:-0.036718974 100:-0.011090958 101:-0.021616135 102:0.014278011 103:-0.024274853 104:-0.0052953098 105:-0.013741055 106:0.017856749 107:0.0011938445 108:0.017809243 109:-0.013351084 110:0.0046305132 111:-0.02383879 112:0.020378532 113:0.00068066514 114:-0.036303946 115:-0.029914476 116:-0.00050953122 117:-0.018053054 118:0.029783615 119:-0.011000451 120:-0.011756673 121:-0.013500442 122:0.017476305 123:-0.024988044 124:0.031324666 125:0.0056612481 126:-0.024477899 127:0.014829094 128:0.0054268987 129:0.024426762 130:0.0025477163 131:-0.0013159116 132:0.031135012 133:0.029742849 134:-0.0034362073 135:-0.00456305 136:0.0070098358 137:-0.0060783042 138:-0.0016637143 139:0.034512722 140:0.02514976 141:0.009264432 142:-0.010217172 143:0.0060968891 144:0.013686924 145:0.016085283 146:0.030964552 147:0.010130933 148:0.011417679 149:-0.00026710824 150:0.0060471151 151:-0.013224038 152:0.01110487 153:0.017928407 154:-0.0066391188 155:-0.013672812 156:0.010083927 157:0.010913367 158:-0.0084498803 159:-0.0096072773 160:0.0047700984 161:0.0080428972 162:-0.012669993 163:0.019455971 164:-0.0071155372 165:0.0022343193 166:0.0052041164 167:0.0084854597 168:0.0028729908 169:-0.01082806 170:0.021798239 171:-0.021532033 172:0.01941551 173:-0.0010650506 174:0.014627253 175:-0.0028622662 176:-0.0020602254 177:0.0007775997 178:0.010326828 179:0.004962098 180:-0.0034530991 181:-0.0017285671 182:0.0054428527 183:0.0023447817 184:0.0015032417 185:0.0022683828 186:0.0064892711 187:0.0059282509 188:-0.010105226 189:-0.0027802417 190:0.0055659179 191:0.00076927606 192:-0.0093808704 193:0.00027277415 194:0.0084274109 195:-0.004859589 196:0.0089276329 197:0.0029570495 198:0.0044866754 199:0.0032458039 200:0.00059720742 
0.1842557506342583 0.2161584228539012 0.08065864669775429 0.1619107093965095 1:-0.70827642 2:-0.91933742 3:-0.11924389 4:0.32835531 5:-0.15425557 6:-0.045526259 7:-0.009537986 8:0.23801159 9:-0.076366347 10:-0.082669572 11:0.034882092 12:-0.12132229 13:0.044737299 14:0.073280639 15:0.06297829 16:0.020724567 17:0.066343595 18:-0.03479956 19:-0.051737502 20:-0.087863066 21:0.091284973 22:0.091833848 23:0.033154951 24:0.025740691 25:0.11594347 26:-0.072885936 27:0.054862219 28:-0.023798144 29:0.1837714 30:-0.034120969 31:-0.053592811 32:0.039835174 33:0.15319575 34:-0.038032156 35:0.030126141 36:0.053756957 37:0.022676044 38:0.027605894 39:0.048765559 40:0.038839795 41:-0.03099875 42:0.016468856 43:0.065903354 44:-0.062231836 45:-0.030071582 46:0.021402772 47:-0.033645554 48:0.062495256 49:0.024147451 50:-0.018944056 51:0.010061241 52:0.0080246105 53:-0.0090449964 54:-0.018655635 55:-0.014558766 56:-0.029769557 57:-0.014600533 58:0.011587287 59:-0.00050588871 60:0.016697402 61:-0.03963643 62:-0.0071800753 63:-0.019274443 64:0.019540759 65:-0.0050963584 66:-0.018013335 67:0.02877415 68:-0.00030573404 69:-0.0076772723 70:0.014321094 71:0.001286578 72:-0.010033102 73:0.031630232 74:-0.012287176 75:-0.018648818 76:-0.0055709078 77:0.02159089 78:-0.00441309 79:-0.018013074 80:-0.036691111 81:0.016693435 82:0.0061560359 83:0.03694096 84:-0.0011477956 85:0.027259126 86:0.022682045 87:-0.010976903 88:-0.0073350497 89:0.0071104073 90:-0.0066955685 91:-0.0087545392 92:-0.0018122001 93:-0.0070548454 94:-0.00049615785 95:0.014511792 96:0.034783327 97:0.014416169 98:-0.019606893 99:0.013721404 100:0.011610991 101:0.0008418662 102:-0.030972649 103:-0.017989539 104:-0.010634043 105:0.00026258457 106:-0.034249287 107:-0.011910603 108:0.01253911 109:0.0010500974 110:-0.024182698 111:0.029726071 112:-0.015204213 113:0.010282977 114:0.019658269 115:-0.016778454 116:0.020973411 117:0.0092546626 118:0.00046762031 119:0.016953669 120:-0.017729496 121:0.0070173807 122:-0.010788332 123:0.013337841 124:-0.006599721 125:0.015649258 126:0.0037148602 127:-0.0038593112 128:0.00040873098 129:-0.016439529 130:-0.0093408534 131:0.0021296065 132:-0.0031562208 133:0.00030473297 134:-0.0023600009 135:-0.00033185873 136:-0.021368332 137:0.0058455243 138:0.017379599 139:-0.013018922 140:-0.012822858 141:-0.01310875 142:0.0075956322 143:-0.0065848406 144:-0.0024790658 145:-0.00087883008 146:0.00071867501 147:0.002061035 148:-0.0093584554 149:0.006109996 150:-0.00074808699 151:-0.0059140197 152:-0.010079281 153:-0.01004578 154:0.0065009511 155:-0.0033527743 156:-0.0025170533 157:0.0054124129 158:0.013542288 159:0.010553481 160:-0.019604671 161:-0.0075428628 162:0.0070119581 163:-0.0024682181 164:0.0061212991 165:0.0061357884 166:-0.0022405374 167:-0.010284173 168:-0.020348373 169:-0.01561668 170:-0.0084109765 171:-0.0097504921 172:-0.0051882141 173:-0.0056566705 174:0.00092117074 175:0.013028228 176:-0.0027384214 177:0.0012560172 178:0.0055888851 179:-0.020623256 180:-0.012282553 181:0.0035938779 182:0.017132031 183:0.012300853 184:-0.015186577 185:0.016572948 186:0.005327146 187:0.024091339 188:-0.0088976054 189:-0.0028090688 190:-0.014254218 191:-0.017916007 192:-0.0061953612 193:-0.0093223576 194:-0.0082031987 195:0.0097637095 196:0.0017552751 197:-0.00041688608 198:-0.0051559107 199:0.01280215 200:0.006116526 
0.546179337819017 0.3840941521438988 0.2203766872902316 0.5334501692000145 1:-0.67854922 2:-0.92734116 3:-0.10637059 4:0.31297105 5:-0.17010244 6:-0.016813999 7:-0.023437308 8:0.23168631 9:-0.055140689 10:-0.088665869 11:0.054186012 12:-0.10496306 13:-0.033267711 14:0.012466654 15:0.08990922 16:0.059146431 17:0.096073498 18:-0.026997188 19:-0.071586632 20:-0.12102505 21:0.025030237 22:0.11791733 23:0.10136237 24:0.023120267 25:0.13058719 26:-0.026091813 27:0.077878323 28:0.00066464736 29:0.21737209 30:-0.0089068862 31:-0.077205759 32:0.10995135 33:0.14453108 34:-0.066811735 35:0.037244698 36:0.018936905 37:-0.015691008 38:0.041736504 39:0.058775016 40:0.064618411 41:-0.043727544 42:-0.018090672 43:0.098627928 44:-0.066729351 45:-0.0047394883 46:0.020311482 47:-0.036882976 48:0.030807315 49:0.023227083 50:-0.0069735655 51:0.01909295 52:-0.0020917631 53:-0.01921768 54:-0.0095236605 55:-0.018189586 56:-0.018671466 57:-0.024648019 58:-0.015156357 59:-0.0031664852 60:0.00018607106 61:-0.028177083 62:-0.034386852 63:0.020114395 64:-0.020935051 65:0.031617554 66:-0.0096469055 67:0.029025144 68:0.0076418303 69:-0.0022076828 70:-0.023512397 71:-0.0056235923 72:0.0059221167 73:-0.007083709 74:0.0077419872 75:-0.0092954221 76:0.045895602 77:0.00033482911 78:-0.0060935124 79:0.0011864719 80:-0.037374555 81:0.036455882 82:-0.0087589398 83:0.015809647 84:-0.0014622862 85:-0.0048912657 86:-0.005325188 87:0.00023763778 88:-0.0056878855 89:0.026675025 90:0.0061992915 91:-0.0027176448 92:-0.03734354 93:0.010640441 94:-0.028351372 95:0.024552632 96:0.011049998 97:-0.022908379 98:-0.004010018 99:0.008080033 100:0.0082403912 101:-0.00015998401 102:-0.0095655127 103:0.0023037454 104:0.0024681979 105:0.036452061 106:-0.014725498 107:0.0069001736 108:0.0088201538 109:-0.015779258 110:-0.023439911 111:-0.004478443 112:-0.036295463 113:-0.010731595 114:0.0018419602 115:-0.0077728054 116:-0.01430486 117:0.013509397 118:-0.033947455 119:0.00094941215 120:0.0041792733 121:0.00081218606 122:0.019974272 123:0.014470893 124:-0.019050318 125:-0.015134734 126:0.0028418652 127:-0.0084362415 128:-0.00240447 129:0.035541308 130:0.010966683 131:0.0061617873 132:-0.0038541842 133:0.0010890107 134:0.014479447 135:0.0020366345 136:-0.016278237 137:0.0055409244 138:0.0075367841 139:-0.019750879 140:-0.0068399904 141:0.015727048 142:-0.024112566 143:0.01487458 144:0.0053394682 145:-0.0032514529 146:-0.0028935912 147:0.015042361 148:0.02430913 149:0.011855681 150:0.01302943 151:0.018121995 152:0.0071163775 153:0.007817608 154:0.004835064 155:0.011562174 156:0.020085152 157:-0.00096047294 158:0.0079273019 159:-0.0040327223 160:0.0030425109 161:0.0089088245 162:0.013470052 163:-0.029517525 164:0.0044624148 165:-0.0017753519 166:0.0065024561 167:0.0045330871 168:0.0015113346 169:0.014279959 170:0.0053328871 171:0.012141929 172:-0.018760558 173:0.016675858 174:-0.012456974 175:0.0005620061 176:-0.015396069 177:-0.0029596142 178:-0.004651621 179:-0.005589302 180:-0.0021484278 181:-0.013614146 182:-0.0054193461 183:-0.0087405355 184:-0.0065771817 185:-0.0039115925 186:-0.0025499707 187:-0.0025032672 188:0.0051758471 189:-0.0050879469 190:0.0018414783 191:0.0078550834 192:0.0010514832 193:0.015558147 194:0.0053972399 195:-0.006151733 196:-0.013913125 197:0.0056308875 198:0.0048357472 199:0.0068841314 200:0.012024099 
0 0 0.3139225425556864 0.0008409237769878492 1:-0.7035138 2:-0.91059805 3:-0.14361518 4:0.31177015 5:-0.14703676 6:-0.075666436 7:0.016074733 8:0.27199512 9:-0.089262379 10:-0.085323388 11:0.020845643 12:-0.096379755 13:-0.016116837 14:0.015160913 15:0.045040242 16:-0.0011269578 17:0.060215621 18:0.0025479511 19:-0.026519051 20:-0.096551075 21:0.070014225 22:0.12107103 23:0.097865073 24:0.017709541 25:0.13600097 26:-0.086014776 27:0.086956012 28:-0.013345242 29:0.21316313 30:-0.059652792 31:-0.072487221 32:0.078943134 33:0.1326244 34:-0.021180203 35:0.029449388 36:0.039345907 37:-0.010421795 38:0.012746508 39:0.068751894 40:0.064627287 41:-0.030893534 42:0.023236615 43:0.067627804 44:-0.086248632 45:-0.014860237 46:0.030532182 47:-0.058943772 48:0.051157271 49:0.03594579 50:0.0083616949 51:-0.0016903604 52:0.0018550705 53:-0.028268473 54:-0.015768626 55:-0.016780709 56:-0.01672239 57:-0.027341237 58:-0.011452962 59:0.014821958 60:-0.020337362 61:-0.040102509 62:-0.044399189 63:-0.027568221 64:-0.0085198536 65:-0.018247429 66:-0.019337077 67:0.010589299 68:-0.0043120935 69:-0.00061524674 70:-9.4437902e-005 71:-0.017970545 72:0.0045995889 73:-0.00073136083 74:0.048343165 75:0.0064807801 76:0.012930279 77:-0.014646488 78:-0.018711161 79:0.013320121 80:-0.016841413 81:0.012839389 82:-0.0055934961 83:0.021474245 84:0.021847133 85:-0.016642034 86:0.0069303964 87:-0.013222177 88:0.010765319 89:-0.011451343 90:0.036800878 91:0.0048539454 92:-0.041280218 93:0.0024423022 94:0.023678974 95:-0.0033390709 96:-0.015406808 97:-0.044785293 98:-0.0059768702 99:9.272096e-005 100:-0.023022503 101:-0.0015383777 102:-0.010173745 103:-0.005464118 104:-0.0081388307 105:0.015418339 106:0.008551816 107:-0.0044720109 108:-0.031029976 109:-0.025323457 110:-0.0056961179 111:0.0088026379 112:-0.031790779 113:-0.0034793836 114:0.030194189 115:-0.025647795 116:0.017775752 117:-0.0038454256 118:-0.0098976698 119:0.010796954 120:0.025318251 121:0.002800441 122:0.024427708 123:0.010355359 124:-0.001330339 125:-0.0070812661 126:-0.016921955 127:0.0022043735 128:0.0035681883 129:-0.0058325478 130:-0.022829209 131:0.018155738 132:-0.023171181 133:0.013994007 134:-0.011857102 135:0.0099281635 136:-0.017423174 137:-0.0085354545 138:0.0060057883 139:-0.011309592 140:-0.005725279 141:0.004305982 142:0.0079891507 143:-0.018525954 144:0.0046661257 145:-0.025173257 146:-0.013831329 147:0.00044790719 148:0.014246493 149:0.0063795317 150:-0.015706148 151:-0.013228158 152:-0.012582221 153:-0.012967637 154:-0.0027884582 155:0.016924374 156:-0.01141332 157:-0.0049087119 158:-0.0018836464 159:0.00062752866 160:0.0036297812 161:-0.00034952699 162:0.026051796 163:-0.00057257684 164:-0.010282526 165:0.0064750818 166:0.0090474739 167:0.0048588129 168:-0.0073646749 169:0.00074441244 170:-0.013307725 171:0.0076467012 172:-0.00037772081 173:-0.008042271 174:0.00024913076 175:0.018129622 176:-0.017912783 177:0.0074152687 178:0.01098077 179:0.0010946151 180:0.010940454 181:0.0051284205 182:0.0097624785 183:0.0047469915 184:0.013439664 185:0.0095589459 186:0.0022113908 187:-0.002116 188:-0.0033499828 189:0.011958354 190:0.018899495 191:-0.013421923 192:-0.014110834 193:0.010926979 194:-0.007371202 195:-0.015458785 196:0.0050365863 197:-0.0072058577 198:-0.0030257275 199:-0.014378415 200:0.0047599132 
0 0.08365668844214831 0.008281909686994755 0.07196702806671902 1:-0.69485009 2:-0.91555909 3:-0.10903247 4:0.3054613 5:-0.16073553 6:-0.081056793 7:0.038565109 8:0.27343661 9:-0.071083249 10:-0.094276239 11:0.013646096 12:-0.1174221 13:-0.024477442 14:-0.004659166 15:0.071531461 16:-0.0074163786 17:0.068112199 18:-0.0215809 19:-0.026558147 20:-0.10432751 21:0.094713508 22:0.13857856 23:0.062332756 24:-0.0057725514 25:0.14111824 26:-0.075576538 27:0.078398069 28:0.0077155133 29:0.16588702 30:-0.038138579 31:-0.074587152 32:0.093167998 33:0.15163225 34:-0.019199198 35:-0.00094338074 36:0.038145827 37:-0.014929082 38:0.048810739 39:0.059186424 40:0.056233762 41:-0.033921012 42:0.02697981 43:0.068595786 44:-0.043283015 45:-0.026323599 46:0.003166208 47:-0.045201585 48:0.053437087 49:0.025089239 50:0.0016989972 51:-0.021947846 52:-0.021131125 53:-0.032740478 54:-0.0065320078 55:-0.025863807 56:-0.02192209 57:-0.052076323 58:0.0090726329 59:0.0094790452 60:-0.013798071 61:-0.025826345 62:-0.035885557 63:-0.014048194 64:0.0093726923 65:-0.029065112 66:-0.00057189749 67:0.041087103 68:0.010800745 69:-0.014771617 70:0.0018188902 71:-0.024721659 72:-0.0082940841 73:-0.0040720406 74:0.0056090792 75:0.0085626834 76:-0.00045789015 77:0.033814609 78:-0.0087968423 79:0.016261379 80:-0.018617808 81:0.010813672 82:-0.020970351 83:0.0058607735 84:0.010832595 85:-0.0035017107 86:-0.0055083524 87:-0.017869764 88:-0.014450867 89:-0.0018865117 90:0.022366545 91:-0.018083574 92:-0.0068127099 93:-0.0057608678 94:-0.011795397 95:0.0095667556 96:-0.0238326 97:-0.0020060339 98:-0.0067372629 99:-8.0216659e-006 100:-0.0089176595 101:-0.0056781556 102:-4.4647303e-005 103:0.0043326011 104:0.0044191874 105:-0.024580945 106:0.011927752 107:-0.0012341823 108:-0.018537608 109:0.014192139 110:0.0063613302 111:-0.014992536 112:-0.02126438 113:-0.0021049333 114:0.02603401 115:-0.00060205539 116:0.018720799 117:-0.0081343906 118:-0.019782263 119:-0.014122509 120:0.006336103 121:0.0043809233 122:-0.024894802 123:0.03687828 124:0.0096246015 125:0.0043531705 126:0.010265609 127:0.0087616503 128:0.0011485715 129:0.0079894053 130:-0.022781803 131:-0.022938803 132:-0.0082790357 133:-0.010451831 134:-0.012167733 135:0.01070487 136:-0.01140109 137:-0.0088213777 138:-0.0084928271 139:-0.01029702 140:0.0017650655 141:-0.00063134657 142:-0.0085544795 143:0.0037651701 144:-0.0068587403 145:0.01348378 146:0.011529765 147:-0.034036583 148:0.0025886579 149:-0.0065300723 150:0.01093277 151:0.029334303 152:-0.0018884619 153:-0.0047944777 154:-0.010546451 155:-0.0025809247 156:0.013176668 157:-0.0040604785 158:0.016744783 159:0.0097346828 160:-0.00019783157 161:0.0048665006 162:0.015358777 163:-0.0067846366 164:-0.0051354897 165:0.013568747 166:0.0069926717 167:-0.0018403116 168:-0.0090775695 169:0.017248169 170:0.0081199297 171:0.018383737 172:-0.0034039882 173:-0.0034769437 174:0.0077834017 175:-0.00076513365 176:-0.0077685902 177:-0.011924278 178:0.0093217552 179:-0.0035219293 180:0.0047266461 181:-0.0071459444 182:-0.0060782373 183:0.012484455 184:-0.0084218351 185:0.00056688447 186:-0.0020324663 187:-0.0005111416 188:-0.0061226008 189:-0.0044784637 190:-0.0072329745 191:0.00027664293 192:-0.006050141 193:0.016845503 194:-0.0040445517 195:0.0028536327 196:0.0111671 197:-0.00076229023 198:-0.0077667737 199:-0.0042318885 200:0.006447912 
0 0.007757231769726549 0.1326070254507911 0 1:-0.66926514 2:-0.89752628 3:-0.12562581 4:0.311255 5:-0.1453916 6:-0.083146077 7:0.0081746751 8:0.28886572 9:-0.088423784 10:-0.062502309 11:0.014445951 12:-0.096651015 13:-0.020454091 14:-0.0019176401 15:0.038788946 16:0.01117658 17:0.074850555 18:-0.02702606 19:-0.031441803 20:-0.12306849 21:0.093562633 22:0.11934479 23:0.072960434 24:-0.0081812861 25:0.12195596 26:-0.089283087 27:0.066354062 28:-0.033712727 29:0.19287311 30:-0.048246168 31:-0.061042375 32:0.07567909 33:0.12375888 34:-0.048553184 35:0.0042646661 36:0.042212859 37:-0.0028821965 38:0.0092783399 39:0.056250113 40:0.050562219 41:-0.037923395 42:0.045146001 43:0.064957339 44:-0.046317449 45:-0.042880004 46:-0.00048132309 47:-0.019948508 48:0.04823031 49:0.0023782821 50:0.0093941902 51:0.00010733585 52:0.0023450962 53:-0.028355846 54:0.016701399 55:-0.0031691077 56:-0.018528482 57:-0.025066124 58:-0.012143509 59:-0.026951181 60:0.0068122557 61:-0.038016091 62:-0.02329928 63:-0.020770838 64:0.00079416425 65:-0.030918839 66:0.0014090487 67:0.01795496 68:-0.015676325 69:-0.01195035 70:-0.00046783755 71:-0.0089099305 72:0.0018437921 73:-0.019148937 74:0.0083604929 75:-3.6132126e-005 76:0.030644539 77:-0.010236895 78:-0.00270833 79:0.010195058 80:-0.010204203 81:-0.0083310039 82:0.022169779 83:0.0038402891 84:0.010416102 85:0.013583391 86:-0.033853576 87:0.012188398 88:-0.0086822042 89:-0.0032278205 90:0.012301323 91:-0.028826899 92:0.0073104327 93:0.010904488 94:0.0097757729 95:-0.003270702 96:-0.024282028 97:-0.041758199 98:-0.0059779576 99:0.0073734394 100:0.0090746538 101:-0.0028658874 102:0.021895423 103:0.0045355203 104:-0.027108143 105:-0.0065180473 106:-0.010064935 107:-0.0028885098 108:-0.01729063 109:-0.0016123654 110:0.0022870817 111:-0.0041800937 112:-0.014649391 113:0.0074550072 114:0.0110397 115:0.008138351 116:-8.8871892e-005 117:0.011532509 118:-0.0037460108 119:-0.022497714 120:-0.001033332 121:0.0042955573 122:-0.0028221632 123:0.0086823703 124:-0.005119441 125:-0.0086874193 126:-0.012997672 127:0.018137411 128:0.015170038 129:-0.0036857796 130:-0.0093421632 131:0.0045039594 132:0.0054788483 133:0.00028756056 134:0.006596897 135:0.0044353163 136:0.0066290247 137:0.00035181588 138:0.002779118 139:0.0094306354 140:0.01112726 141:-0.006361678 142:0.0058340956 143:-0.0072609463 144:4.0224203e-005 145:0.01555162 146:-0.017818436 147:0.0046866317 148:0.0097346673 149:-0.014087164 150:0.00050274421 151:0.0034390109 152:-0.018057951 153:-0.01658555 154:-0.0042655189 155:0.0010783859 156:-0.0064930201 157:-0.0074463886 158:-0.012921522 159:-0.0079455306 160:0.0089329927 161:0.012510195 162:0.011740063 163:-0.0046170466 164:0.0073531802 165:-0.010825889 166:-0.0055362364 167:-0.0099126711 168:-0.0047713499 169:0.0011734485 170:0.0011026968 171:-0.0020800759 172:-0.011482605 173:0.0086806985 174:-0.0054367211 175:0.016502727 176:0.0053361397 177:-0.0075493317 178:-0.0042760695 179:0.0062858206 180:-0.0089438344 181:-0.0049449992 182:0.015932875 183:0.019903523 184:-0.0059931858 185:-0.0088163812 186:-0.0037954312 187:0.0035602571 188:0.011640287 189:0.0030649815 190:0.0025198251 191:0.01121839 192:-0.013304156 193:-0.0055487274 194:-0.0041555296 195:0.0095946163 196:0.0025671968 197:-0.0058782422 198:-0.0019883181 199:0.0096315172 200:0.013724899 
0.1937111390137818 0.1322223859638912 0.007359600094301566 0 1:-0.66594182 2:-0.88246217 3:-0.12334876 4:0.29084471 5:-0.16977377 6:-0.071877381 7:0.044076738 8:0.26684852 9:-0.092784694 10:-0.098419934 11:0.024340106 12:-0.10794935 13:-0.038270416 14:0.03268696 15:0.013369138 16:-0.020810992 17:0.044554714 18:-0.048676907 19:0.0012425245 20:-0.093956458 21:0.073639342 22:0.14893806 23:0.047265035 24:0.034824206 25:0.097263862 26:-0.052102233 27:0.057963909 28:-0.0053390215 29:0.17450386 30:-0.017358256 31:-0.087370471 32:0.064728325 33:0.11199263 34:-0.058788355 35:0.022047929 36:0.029369108 37:-0.0056652912 38:0.024937271 39:0.044375042 40:0.061046479 41:-0.036853246 42:0.023409546 43:0.05971924 44:-0.068375588 45:-0.02358462 46:0.014598807 47:-0.02759775 48:0.048846571 49:0.040317759 50:-0.0099146889 51:-0.0025485391 52:-0.0064475747 53:-0.0069956614 54:0.0057450778 55:-0.013434206 56:-0.014900802 57:-0.026636092 58:-0.0052038837 59:-0.00066697708 60:-0.01900021 61:-0.030660457 62:-0.011968807 63:-0.0079823798 64:-0.0036856635 65:-0.027577147 66:-0.0099904655 67:0.019866794 68:0.0053760963 69:0.0042114147 70:0.0030500945 71:-0.031237711 72:0.023202053 73:0.0066333309 74:0.014161278 75:0.013489704 76:0.027761486 77:0.018981572 78:-0.0046008242 79:-0.0042896262 80:-0.0059253271 81:0.018650626 82:0.00088602669 83:0.001094213 84:-0.014552282 85:-0.0087539661 86:-0.018147626 87:-0.0317189 88:-0.012837251 89:0.007556051 90:0.0080680485 91:-0.022351814 92:-0.026710416 93:0.0043325848 94:-0.037388655 95:-0.0045857687 96:-0.0029165414 97:-0.017844073 98:-0.0017396915 99:0.011742699 100:-7.7173075e-005 101:-0.0043066617 102:-0.022336056 103:0.0013435228 104:-0.023894536 105:0.0087820948 106:-0.012924199 107:-0.0088635445 108:0.0025279183 109:-0.0056000966 110:-0.014692789 111:-0.0092769302 112:-0.021046451 113:-0.015127528 114:0.01176899 115:0.004087609 116:0.0019422733 117:-0.0061239376 118:-0.00065106775 119:-0.0023784154 120:0.0071815106 121:-0.013944759 122:0.017392595 123:0.00026032072 124:-0.023718355 125:-0.0036012395 126:0.039983724 127:0.010692382 128:-0.0022516601 129:0.014732852 130:-0.01363227 131:0.0020069341 132:0.018747947 133:-0.0013142054 134:0.015285614 135:0.010808991 136:-0.01294794 137:-0.019903353 138:0.007349023 139:0.0028490014 140:-0.010454871 141:-0.012077939 142:-0.010100611 143:0.016984119 144:-0.0049415913 145:0.00040274343 146:-0.0033935112 147:-0.005476468 148:0.0011292534 149:0.0049879838 150:0.0025240211 151:0.016455523 152:0.0028429929 153:-0.0026067704 154:0.0042326307 155:0.0013057457 156:0.016864267 157:-0.0043091141 158:0.0044085409 159:-0.012792989 160:-0.008485619 161:-0.017392729 162:0.0074282787 163:-0.0048544475 164:0.0039811052 165:-0.0067219744 166:0.0025015978 167:-0.0038313644 168:-0.0084940857 169:-0.0091508661 170:0.0069996812 171:0.010653713 172:-0.0077322601 173:0.0052271451 174:0.012306072 175:0.00096945331 176:0.0044320374 177:0.0047209414 178:-0.0015972557 179:-0.012519306 180:-0.0046366771 181:0.00053611013 182:0.0034908882 183:0.01692803 184:-0.0054661623 185:0.0023556131 186:-0.00027617392 187:0.014877473 188:-0.010248553 189:0.0013374335 190:-0.015055412 191:-0.0046958968 192:-0.0069938333 193:0.017473303 194:-0.0091662054 195:-0.0069183289 196:-0.01664917 197:0.0018025046 198:-0.0070711676 199:-0.012244964 200:-0.0036087612 
0.1263670858036513 0 0 0 1:-0.67037479 2:-0.90113266 3:-0.11845899 4:0.29753236 5:-0.11438961 6:-0.022774898 7:-0.01401313 8:0.20439421 9:-0.055648186 10:-0.052615611 11:0.031050482 12:-0.049091231 13:-0.0019840981 14:-0.0037075285 15:0.030084833 16:-0.00057632375 17:0.053528807 18:-0.0037641261 19:-0.026278166 20:-0.076916936 21:0.052637 22:0.11547276 23:0.063529255 24:0.052156008 25:0.11597223 26:-0.047154788 27:0.080027152 28:-0.0077344086 29:0.12704192 30:-0.05006096 31:-0.035840216 32:0.069577803 33:0.11018165 34:-0.027858136 35:0.021126234 36:0.011076415 37:0.036318127 38:0.033352574 39:0.06742085 40:0.030656389 41:-0.039402534 42:0.0016161713 43:0.043247146 44:-0.021252631 45:-0.050062683 46:0.01900349 47:-0.025642359 48:0.061566997 49:0.010484231 50:-0.010394966 51:-0.0023343148 52:-0.023126921 53:-0.0032484815 54:-0.0085806176 55:-0.013221145 56:-0.014952558 57:-0.012791797 58:0.012815947 59:-0.014353106 60:-0.0022264075 61:-0.0034996477 62:3.0987174e-005 63:-0.015723918 64:0.010804943 65:-0.0085466414 66:0.012855404 67:0.012061732 68:-0.024776753 69:-0.013406843 70:0.0046817553 71:0.0041546789 72:0.0016359983 73:0.025886455 74:0.0023505023 75:-0.0020786612 76:-0.0063175596 77:0.019629252 78:0.011139429 79:-0.010520279 80:-0.0054880544 81:0.0045549232 82:-0.012295525 83:0.025414128 84:-0.020920892 85:-0.0045437169 86:-0.0027923105 87:-0.0038949787 88:-0.012517606 89:0.032404816 90:-0.010818906 91:-0.0033623462 92:-0.022970738 93:0.033250551 94:-0.021213291 95:0.024204777 96:0.011261588 97:0.022725432 98:0.0052831747 99:0.025990759 100:9.6771063e-005 101:0.002756024 102:-0.01838191 103:0.0074810604 104:-0.011243067 105:-0.014727571 106:0.0044328888 107:-0.009208517 108:0.0093925054 109:-0.016747021 110:-0.00090097372 111:-0.0095875476 112:-0.0010355548 113:0.010703739 114:-0.0025844024 115:0.018030453 116:-0.0041689619 117:-0.003419568 118:0.0071889599 119:0.0048180378 120:0.00031989872 121:-0.0061351124 122:-0.012355822 123:0.012826623 124:-0.008387825 125:0.0035107899 126:0.010185657 127:0.0062108602 128:-0.0033135702 129:0.022974313 130:-0.011673922 131:0.00016017026 132:0.002114804 133:0.0014039926 134:0.015768033 135:0.0037268562 136:0.00022550807 137:-0.011143141 138:0.0060727616 139:-0.0047114085 140:-0.021100689 141:-0.028461235 142:-0.0029608027 143:0.015376146 144:-0.00071622393 145:-0.019970673 146:0.022071942 147:-0.021377985 148:-0.0073203743 149:-0.0019822365 150:-0.0026424478 151:-0.0063521544 152:-0.0045526508 153:-0.0021228574 154:0.00907315 155:0.0011809038 156:-0.0090211228 157:0.0097703308 158:0.0058266506 159:-0.0086080683 160:-0.0043186352 161:-0.0092925418 162:-0.0012115455 163:-0.013534258 164:0.013418903 165:0.0079625085 166:-0.0051145212 167:0.012443435 168:0.014457297 169:0.0073394168 170:0.01181643 171:0.018970644 172:-0.0041622658 173:0.0037550357 174:-0.003081093 175:-0.016555749 176:0.003421123 177:0.00061016753 178:-0.0011860384 179:0.00055553625 180:-0.0066010719 181:-0.012966867 182:0.015839535 183:-0.004391398 184:-0.005354637 185:0.0067720522 186:-0.015806736 187:0.005442493 188:0.0025081468 189:0.016780598 190:0.017876762 191:0.0015759175 192:0.00079478198 193:0.010264855 194:-0.016190219 195:0.0017662395 196:-0.0047849641 197:-0.0036695113 198:-0.014468673 199:-0.0083983401 200:0.0019773201 
0.1172274162143905 0.0200158649970448 0 0 1:-0.44447186 2:-0.5573875 3:-0.10487063 4:0.1090352 5:0.37651058 6:0.067933722 7:-0.027944863 8:-0.11407953 9:-0.083969396 10:-0.050623431 11:-0.025143106 12:0.020360123 13:0.063518557 14:-0.048381502 15:-0.032255152 16:-0.018182485 17:0.010146238 18:0.02687269 19:-0.0094765228 20:-0.058164256 21:-0.0023390605 22:-0.089996601 23:-0.015132045 24:0.00766868 25:-0.078207922 26:0.028154966 27:-0.046105618 28:0.041900716 29:-0.0092907034 30:0.029687015 31:0.028472523 32:-0.084771907 33:-0.01322125 34:-0.032902188 35:-0.0034281247 36:-0.047672048 37:0.076513908 38:0.070455151 39:0.010446129 40:-0.027756355 41:-0.019134369 42:-0.046071897 43:-0.046821562 44:0.017719217 45:-0.02978231 46:0.038397249 47:-0.030824072 48:-0.046338232 49:-0.015361047 50:-0.070330618 51:-0.07080027 52:-0.030262091 53:0.082256357 54:-0.036140275 55:-0.053434944 56:0.032112753 57:0.054161218 58:0.050236871 59:-0.011588592 60:-0.057737965 61:0.021350082 62:-0.01993257 63:0.024164086 64:0.025438766 65:-0.0055179393 66:0.0095380282 67:0.04422826 68:0.017724189 69:-0.047101351 70:-0.01006411 71:-0.00063382135 72:0.011269646 73:0.013649303 74:0.053721999 75:-0.0080758467 76:0.025741346 77:0.023257591 78:-0.023758295 79:-0.032049163 80:-0.016895228 81:0.037137249 82:-0.040502399 83:0.035295267 84:0.04896246 85:0.020659611 86:0.01924455 87:0.0077208045 88:0.027237756 89:0.043825703 90:-0.010422995 91:-0.012553859 92:0.010992355 93:-0.021882963 94:0.0010473751 95:-0.023018096 96:0.0063683396 97:0.029089703 98:0.059701946 99:-0.012293441 100:0.0075574219 101:0.02597201 102:0.010848238 103:-0.0080889309 104:0.035411221 105:-0.023960974 106:-0.0049051589 107:0.047078443 108:0.022444479 109:0.014652217 110:0.017924799 111:-0.030661076 112:0.0094477723 113:0.016762197 114:0.019058659 115:0.0033108275 116:0.028517981 117:0.027097795 118:0.012190247 119:-0.012072541 120:-0.025999437 121:-0.020561914 122:-0.0046165778 123:0.0076607702 124:-0.023704741 125:-0.032582873 126:0.010320298 127:-0.029211226 128:-0.034398372 129:0.025419624 130:0.0079995564 131:-0.011314024 132:-0.0056822315 133:-0.020552493 134:-0.0014914049 135:0.017652145 136:0.030106455 137:-0.014688028 138:0.051252039 139:-0.0086099925 140:-0.0068456376 141:-0.0054462043 142:-0.062444468 143:-0.0039446728 144:0.010144989 145:-0.0051951337 146:-0.01015975 147:0.00053569848 148:-0.005956295 149:-0.010418883 150:0.0063601429 151:0.029337192 152:-0.0016868568 153:-0.0095000656 154:-0.027184324 155:-0.00070467616 156:-0.0024980243 157:0.0020012682 158:-0.0034816595 159:-0.021563862 160:0.028562694 161:-0.004295974 162:0.006127374 163:0.0038294004 164:0.0040973813 165:-0.0042992408 166:0.00010728027 167:0.014602634 168:-0.0087089361 169:0.011353346 170:-0.0082936096 171:-0.018039822 172:-0.00044583831 173:-0.0076399992 174:0.041341052 175:0.018629686 176:-0.0060231106 177:-0.032171621 178:-0.010654888 179:0.0089943191 180:0.022348224 181:0.0064060456 182:0.02177969 183:0.0085219736 184:0.0079401017 185:-0.023194487 186:0.0045085652 187:-0.0018710076 188:-0.0014499427 189:0.0051932419 190:-0.0094020991 191:0.0039532239 192:0.0036073059 193:0.00046772182 194:0.012643188 195:-0.02732275 196:-0.020736316 197:0.016639508 198:0.023249107 199:0.0021566166 200:0.0018871902 
0 0 0.1079424861359878 0 1:-0.19878663 2:-0.27865933 3:-0.21264356 4:0.02950999 5:0.51744361 6:0.10530376 7:-0.14121344 8:-0.58435188 9:-0.31042705 10:-0.0492149 11:0.11439458 12:0.074679016 13:0.073981229 14:-0.13688633 15:0.071612427 16:-0.078470254 17:-0.084085048 18:-0.034321514 19:0.027597168 20:-0.007997478 21:0.037983008 22:0.032927996 23:-0.099860764 24:0.019327773 25:0.056259252 26:-0.087899243 27:0.066440823 28:0.077074339 29:-0.024426441 30:-0.03794011 31:-0.081487001 32:0.029972464 33:-0.0031925474 34:0.03548929 35:0.035557264 36:0.015610685 37:0.0018713946 38:0.0055901262 39:-0.0059434 40:0.026448762 41:0.014592606 42:0.0084692597 43:-0.001476238 44:0.0080102451 45:0.0034000849 46:-0.013046207 47:0.018199956 48:-0.027990194 49:0.043328382 50:0.013124174 51:0.055511625 52:-0.014424989 53:-0.0026641669 54:0.017525061 55:0.010983542 56:0.022864011 57:0.0036050383 58:-0.025305977 59:-0.0086680121 60:-0.012306531 61:-0.0075064174 62:-0.007409241 63:-0.0012938157 64:-0.053637153 65:-0.026823354 66:0.024020529 67:0.032801614 68:0.031484596 69:0.031962975 70:-0.014995028 71:0.005115275 72:-0.0051498894 73:-0.0276983 74:0.022511691 75:-0.055627399 76:-0.031662464 77:-0.0029220851 78:0.029536472 79:0.0081340577 80:-0.0080932141 81:0.014694078 82:0.038280822 83:0.0052982223 84:-0.0078456233 85:-0.021566538 86:-0.0069606413 87:0.00067331041 88:-0.010980289 89:-0.009238232 90:-0.0017595752 91:-0.043451576 92:0.0060086512 93:-0.024568492 94:-0.0081563394 95:-0.029210879 96:-0.012256625 97:0.0073740852 98:0.0041774428 99:-0.040419544 100:-0.0083892964 101:0.0042987511 102:0.0012035759 103:0.0063078312 104:0.0038159737 105:0.0013602106 106:-0.036510338 107:0.030460275 108:-0.0002278228 109:0.011468625 110:0.0046563183 111:-0.017414323 112:-0.0095402099 113:0.0027911764 114:-0.0096284413 115:-0.035801169 116:0.017489847 117:-0.021812528 118:0.0027742687 119:-0.017423827 120:0.020500433 121:0.0038100192 122:0.027200165 123:-0.0025739248 124:-0.001127072 125:-0.00086373573 126:-0.011458778 127:0.0008517136 128:-0.012245714 129:-0.013652291 130:0.01800518 131:-0.0037507467 132:-0.0089828691 133:-0.0051729393 134:0.022288543 135:-0.0035986058 136:-0.0081180656 137:0.013058526 138:0.011514871 139:-0.017819139 140:0.0019335865 141:0.0041025489 142:0.01288053 143:-0.003164219 144:-0.0041290873 145:-0.0017924516 146:0.0065623414 147:0.0082897847 148:-0.0082824207 149:0.012351276 150:0.0093926522 151:-0.0036141789 152:-0.011499096 153:-0.00078572647 154:-0.012096277 155:0.0027667037 156:0.020121655 157:0.0091615083 158:0.00026096071 159:0.010160475 160:5.2496058e-005 161:0.014328237 162:-0.0006203954 163:0.0066828802 164:0.0069980654 165:-0.015768495 166:-0.011660158 167:0.0016600309 168:0.0018210013 169:-0.011375478 170:0.00087148514 171:-0.00017795093 172:-0.0036831103 173:-0.0047088758 174:-0.01667188 175:-0.0045963041 176:0.0018838964 177:0.0073836015 178:-0.010219308 179:-0.0021021989 180:0.0074889337 181:0.013393888 182:0.0176197 183:-0.0079068433 184:-0.0002090284 185:-0.0094644595 186:0.0047883877 187:0.014869333 188:-0.0016020717 189:-0.0032160211 190:-0.0011159821 191:0.01658179 192:-0.011687915 193:0.0099756402 194:-0.016197118 195:0.0096957877 196:0.0049175292 197:-0.025694783 198:0.0058403279 199:-0.001469629 200:-0.011835923 
